{"layer_sizes": [784, 16, 16, 10], "weights": [[[0.7746416291675746, 0.8753875846824108, -0.38147772822659065, -0.7474172214476955, -0.6669067319432271, -0.22508844651196402, -0.8099518084382586, 0.8563197992952434, -0.7206014154592801, -0.9352132701231193, 0.15834847682611142, 0.7507573595984787, -0.5488411402648299, -0.15223347160045386, -0.9687227754876615, -0.13457621640693107, 0.9923793785398882, 0.841855446598895, 0.156801932579975, -0.399562230976507, -0.9591287732692617, -0.800384425113736, -0.035508238722919305, 0.8187776649886331, -0.6758005192914787, -0.21789237871500022, -0.8476782135764183, -0.08348308698437257, 0.8857594115231957, 0.8572584223831405, -0.9508562328062533, 0.9506507447781953, 0.2721906892935777, 0.2899869857605437, 0.7579377968447385, -0.05318660728125568, -0.009125533876310321, 0.5831817296687454, -0.7285971928176923, 0.861186765749931, -0.597124287286382, 0.6415551412439466, -0.057214091962224704, -0.8556154036605357, 0.47428498951849746, -0.9723220619068308, -0.8856198537089203, -0.22433800953028635, 1.0180272329487274, 0.8266185238654379, 0.195205351313894, -0.03593792736357915, 0.7304066110252283, 0.11749470977073773, 0.4664698056174936, 0.8007710738613996, -0.6771125239356575, 0.46398111423334787, -0.7873926940014735, 0.306155287909905, -0.6869738623907957, -0.3369590309069632, -0.9801457054520006, 0.13168597569807425, -0.6316849576228857, -0.4448667741393827, 0.8270697371019711, 0.7224045992556535, 0.6153187077348837, 1.0970344336123738, 0.8272503871725917, 0.5195000099288254, 0.557169363073793, 0.20410269414555374, -0.6134783710403566, 0.9287963461035778, -0.08145072374782533, 1.03707832642719, -0.8988019690631089, -0.72453582819432, -0.009239664330570318, 0.7383389293588769, -0.6173793081512244, -0.2126535752565326, 0.23678813357278727, 0.7469800776327438, -0.7028405187353848, -0.5002193478244203, 0.5311395736862929, -0.30465787939727385, 0.2762488051130539, 0.22002132177400685, -0.22395388184503412, -0.46447917742211264, 0.8644861745553514, 0.9040944878043337, 0.7964138156132853, -0.7651639054818768, -0.09095330265731141, -0.47477812539465314, -0.3188121089395258, 1.1516865794653754, 1.1314599909709575, 0.7844072739196125, 0.9027826472651254, -0.9441970500740302, 0.38725613003050824, 0.04457128096301417, -0.7324045203305939, 0.42078646836734346, -0.37270487437144517, 0.7239691098391154, -0.9241728086635514, -0.23953057124674215, 0.6476033878653005, 0.3279667661633754, 0.1391643001626455, -0.5223758085682875, 0.4359025361445217, -0.08253955419187371, 0.16553270836893005, 0.5808756372704226, 0.24096941913740205, 0.5547749806178564, 0.7244769190364209, 0.8247848121501299, -0.1385355488588508, 1.1658337397492293, 0.09605955884372756, 0.16450206946096607, 0.3798152934911422, -0.008047319921780526, -0.18521568892100332, 0.40604416837902363, -0.7061975920666259, 0.05897073285276012, -0.7925380168356152, 0.27041172571084077, 0.5046632675604628, 0.5658519040409968, -0.7066739779431959, -0.0499691332964487, -0.5479162094926384, 0.3840890264030765, 0.6824144549867309, 0.7320652124243808, 0.41948856724845734, -1.0551971849565485, 0.00586658214219656, -0.054237542224657785, -0.697894622680168, -0.7854234486807943, -1.3019098317132067, -0.5042277428334582, 0.5383273013604893, 0.3634970625965977, 0.7794779024731865, -0.37690044540169704, 0.6725034583241114, 0.49154851781255904, 0.15220831893723538, -0.34695175830451525, -1.2906140369003969, 0.8498774426777839, -0.9637836122078349, 0.10545300963143833, 0.6144115251646748, 0.6349704498895237, 0.7047331759194828, 0.973787941151794, -0.05858909054206629, -0.7620689465476245, 0.29674913905356876, 0.18357023037826778, -0.6725222227450642, -0.7380957514859402, -0.35911914483178625, 0.6684376082223872, 0.5898771201313763, -0.860782307761509, 0.26316073393890027, 1.1503620565588084, 0.9186508947428642, 0.3135658425659809, 0.08803030142778678, -0.02979315358302799, 0.0785167134199149, 0.007609313268518093, -0.46473212647918416, -0.23526358127828428, -0.24097534521722475, 0.507626293561331, -0.4495798702079479, 0.1901958543007851, -0.7490985261371603, 0.791548024980867, -0.9620650440921079, 0.9749858298843616, 0.09175158395706051, 0.92731877003759, -0.341824403471556, -0.6784849863262831, 0.475363025274915, -0.6739867778348777, -0.7674123473295779, -0.9047664195186094, -0.8489287429451656, -0.430017427862252, -0.16333476848364298, 1.4761023656863765, 1.3096772686195652, 0.8291313373568957, 0.18964133615367373, 0.3724459468788975, -0.6041691209656961, -0.4788871927612816, 0.24398242954525048, -0.14700627457838758, 0.04426924514845527, 0.45863363713092653, -1.01668398184721, 0.5850231458846137, 0.5831615230704336, 0.5882637422928916, 0.6941125274318688, 0.41084490771295634, 0.8396108397479476, 0.660824911131703, -0.4777934585553443, -0.3124453937899237, -0.033939411766111434, 0.6938426082091997, 0.5206470948230526, -0.16534038660010195, -0.7160302345089334, -0.1152888506649961, 0.49449475909956836, -0.749047900154959, -0.26118164493403967, 1.1048321239059544, -0.25826383512970014, 0.22217553917972416, 0.27417191020348936, -0.4117987314875669, 0.9209118927166596, -1.0876722342339777, 0.5097752269929253, 0.4184278121855972, -0.12773136934138887, -0.39721097956368573, 0.9014433075969986, -0.7414554075052542, -0.7808555455394538, 0.5425451075445785, 0.7157265884761517, 0.9275403261837658, 0.8105684434961918, 0.5887041735017919, -0.47357920037272144, 0.9009201089573237, 0.6973221334411469, -0.29635126232355674, 0.18904067778150538, -0.18657162335761007, 0.06282427438599021, 0.45045917547719416, 0.808137155474393, 0.8031430902592852, -0.4709025869032431, 0.11737839782756188, -1.1524035978514695, -0.8959918000026968, 0.4028147790177242, 0.40520039651367024, -0.5464891050936326, 0.621711912197539, -0.529711920420759, 0.5635760664079796, 0.8013251277197762, 0.12031780583122353, -0.6916001770701194, -0.36535224326843563, 0.10324207901997029, 0.3790162467955517, -0.5014914332731748, 0.7626598524258316, 0.3905644665191548, 0.10019225411040182, 0.8250274871341393, 0.15576064155741753, -0.6772462964087815, 1.0196282467654503, -0.31458288144890795, 1.1047986776678114, 1.0522048757412765, -0.42260407662006294, -0.41434693523155286, -0.12774348484404038, 0.6357505250573127, -0.5094148351638859, 0.32949826239585395, -0.7282684509007991, -0.02934311295761399, 0.24152507541303203, 0.6082294792893266, -0.49583798441343135, -0.9911417922705582, -0.750958092134828, -0.6504540750041305, -0.6948743288650914, -0.523257629208947, -0.18944715515929447, -0.3430966355926174, -0.1432807027453913, 1.0215020018863739, 0.791797146966044, 1.0421864406305321, 0.2828633724505342, 0.36851578344420377, 1.114894993930616, 0.6785653829016285, 1.9131559889131136, 0.36997919714045163, 0.6913306360924076, 0.5910699784768078, 0.30612355855641477, -0.011821349505060065, 0.3925732010802624, -0.16396936928862718, 0.36381488801616935, 0.0627428005951072, -0.4377837975338362, -0.12789376665291466, -0.5477388633339805, -0.28974102912470284, 0.15930570437394298, 0.6772394685288674, 0.6518379282820004, 0.6078865276375488, -0.528710836503487, 1.1406929477483636, 0.4209018096551167, 1.1254005845815058, 0.46974815530005665, 1.296106730367592, -0.30717667039506363, 0.5429278300247644, -0.7320858832284014, 0.14482036881836358, -0.03984290006339451, -0.3210911731586992, 1.306008486067859, 0.0016883116000482297, 1.0855826226396708, 0.5882807479764066, -0.34197958803101763, 0.6490054219162703, -0.8604693899740182, -0.3895782726886699, -0.5146371924859975, 0.5426170601732185, 0.8911545741520029, 0.3102113184110828, 0.6720617731981613, -0.10706468235156374, 0.8419264323439504, 0.7678079838712681, 0.9390912439501149, -0.31554497020622146, -0.652300165945522, 0.6585698549906308, -0.5447859983947981, 0.5742168127846737, 0.3430528447383215, -1.0624489994598434, 0.3544481935812872, 0.18839367845190705, -0.41048054188196104, 0.8350750548964183, 0.8175116739766605, 1.217174572288974, 0.030982033762356417, 0.28182868898826413, 0.15666106059473733, 0.3356490053643096, -0.7340678608227588, -0.2637055847014459, 0.4204204853423955, 0.31153300723044547, 0.8927217866762989, -0.5813782250902925, -0.4091364589296831, -0.3263552374654606, -0.8398771546468373, -0.8451663945541217, 0.9921286264385114, -0.17420099805307124, 0.013864585973051182, 0.1789288078935726, 0.25270866555338267, -0.5633277161399662, -0.619312752527098, -0.5753916605138318, -0.8627362770267512, -0.8755528364600896, -0.5600270519859561, -0.22142098176753885, 0.012172250179242582, 0.6397445749609758, 0.272525906299395, 0.022812690886774508, -0.08353086047697687, -0.6975547853145967, 0.7978791845608124, -0.9066078079078688, -0.7829430629336254, 0.4608730057836653, 0.0844680104508151, 0.9113146446128351, -0.6319607594357972, 0.04591087675162209, 0.30915747211121736, -0.3275229742678125, 0.049961863839008344, 0.8017217072714201, 0.6006375151966116, -1.4512228231396453, -1.0725219894423421, -0.28925619461596336, -1.084092433350965, -0.30739205086995397, -0.9544330154492778, 0.2169284949832734, -0.14569890569280908, 0.41963632193238287, 0.36971522240982596, 0.21139762321651592, 0.534156118329843, 0.8761960990499169, -0.799148767371146, 0.2607654564674893, 0.3934259517960447, -1.070778600495728, -0.9203264519232275, 0.8748291509973504, 0.3860805079989377, 0.17829476900738447, -0.22291727270613504, 0.6516179233625481, -0.8373994884281255, 0.9248650886360285, 0.20066940737607997, -0.0538216950082349, 0.16014408674687353, 0.2954874875359213, -1.2067251628813966, -0.7375211538324672, -0.6704230192770784, -0.8307205195708355, 0.49081002461568096, 0.3913370486142575, -0.7536927759692644, -0.8003092845753913, 0.1017051256490434, 0.08810319051375944, 0.5931092863962151, -0.9566562581808004, -0.19497741301559632, 0.3818386321976693, 0.3605539011046392, 0.07352356679332162, 0.5251668291276382, -0.45216870269658893, -0.15389566968233612, 0.44301422580989536, 0.2390964600336365, -0.8385763491111435, 0.5308840982458998, -0.6088603058947627, 0.48366915017903755, -0.0017486008651370513, -0.022732139167949857, -0.5329914486840274, -0.865639410615497, 0.1514767374517372, 1.0752784494245393, -0.5943052077290102, -0.7891417462256328, -0.2819240673157777, -0.6827283112053378, 0.06796480469400364, 0.4845706975896475, 0.032329343667891336, 0.5980167990483675, 0.8953062362194997, 0.3340509450487339, 0.6988037647331236, 0.18558769223797383, -0.4976200462865123, -0.1775748372867983, -1.035602528167496, -0.298599199656937, -0.6586601017546991, 0.39985302811351703, 0.0826559455324869, 0.3828207912265573, 0.6438342923056501, -0.5769290900885433, 0.4857643627795922, -0.7267340436903074, -1.5024134177706223, 0.5625133547199531, -0.2430918921175531, -0.49136819519907227, 1.1378737040880265, -0.8549371856347473, -0.60291144916999, -0.8284230303785619, -0.37921982056740494, -0.9788975315183646, 0.26026592638816454, -0.390172721806584, 1.2819844277199344, 0.19123129732463146, 0.4735811948178825, -0.8055467336120112, -0.819769457396161, -0.6412576538693106, -0.7940458755401576, 0.7978641781054518, -0.3427692459429064, -0.5220167049380869, 0.5456955899880034, -0.4177727557104458, -0.4355927773600563, -0.8333328445346434, -0.2865917466207658, -1.1244865035163067, -0.6794470862783752, -0.3334909658343266, -0.3686254090133337, 0.6460005304942407, -0.5465388825280529, 0.27669337810452344, -1.422725852292344, -1.223803014574136, -0.8716478155568517, -0.6999688032284354, 0.6436652389326898, -0.7249380943655949, -0.34699591582580375, 0.1985587195260956, -0.6061033825467161, -0.917865160998847, 0.6461412074764333, 0.5456664020653141, 0.36597023302657433, -0.26407156446983443, 0.4796814364583784, 0.17149102730695834, 0.8577565194872092, 0.8043708558452325, 0.5679675196904432, 0.7164527217151104, -0.33862146949891825, 0.31043846011442017, -0.11803689010114893, 0.484376202948421, -0.3136540069266406, -0.5963708212487808, 0.27685713495978637, -0.6405184731455226, -0.5809850160273815, 0.3309500364012932, 0.7160056230013734, -0.8471641551648208, 0.5157510777372969, -0.008171225368313535, 0.7180545631810661, -0.2588306456896886, -0.2554141190344419, -0.03936004323308558, -0.9823574623347631, -0.9591122295360078, -1.0841593432807988, 0.43869440974348917, 0.08820159005000382, -0.9937439115822984, 0.8587595034972666, 0.8088486394774104, -0.3495224857955688, -0.9744482377220467, 0.8472001562009653, -0.3205215228864997, -0.24768252562374993, 0.3130125179865922, -0.6868237207984794, -0.2765734170104078, 0.3119771723154184, 0.455855351297919, 0.27469679248510337, -0.5803216680341978, 0.6386109407063866, -0.5060368539719914, -0.7611421507211261, -0.2370585364712592, -0.672250420149596, -0.13210970631313249, -0.5896084555670634, -0.013305992904759917, -0.3724008829438427, 0.7597181083324679, 0.09402914348446378, 0.8654253096977476, -0.5224181655835757, -0.520069726623376, 0.1761965958524816, -0.7780870185725508, 0.39534675043724044, 0.3198610299541605, 0.3533004699097551, -0.18196477217264187, -0.5037805801238892, -0.5038164075281928, 0.3580132905018837, 0.5447144329526754, -0.15721261186574367, 0.22314967620577042, -0.420503650866432, -0.24552865002786467, -0.048259985134492624, 0.16062122297872913, 0.20347601180368194, 0.12767299105448834, -0.42346080538869146, -0.908210372408039, 0.07779119471490636, 0.1622874048399869, -0.9904968803567972, 0.8816293789550202, 0.5196373216574693, -0.4331305971019736, -0.9587881646026146, -0.9374481344164833, -0.5599340575388403, 0.19574318639237465, 0.38569446619342007, 0.02757673128791918, 0.41221349663496776, -0.2710764626893478, 0.7110360066886467, 0.05381121340320644, -0.20019709689840562, 0.019193653703278808, -0.7674442605753541, 0.5882543251925922, 0.16522076043917014, 0.4977014473514952, -0.19735925912594288, -0.8112530535415543, 0.6465044219165316, 0.18661537031054293, -0.163539740026554, -0.3908748484680753, -0.7020201268901429, 0.3003186550688785, -0.9339523975741431, 0.8833581183993233, -0.4206374229544969, 0.9465659314032042, -0.8082868129504126, -0.6211603519707645, 0.9083505035369304, -0.8765509193823557, -0.1261172508425057, -0.4693424896933762, 0.11422589711837106, 0.15012946624767393, 0.26167356029347794, 0.33301441666683, -0.11651407389270337, -1.2091605358210098, -0.8273064133889548, 1.1191587107671905, -0.3929231986341667, 0.08791357131218296, -0.7223709944685118, 0.37976460482029917, -0.29490475076842554, -0.23484156963695607, 0.7023938093840908, 0.6800545555369736, -0.5694701183791391, 0.7200082482023021, -0.1360074613464852, -0.4827705890842844, 0.12973104631296098, 0.506080379745234, -0.3425312872130819, 0.16605928091722122, 0.00910544905353583, -0.3588227374713646, -0.9786706516681547, 0.8892230688898208, -0.8807485181270815, -0.5716409408728135, 0.5962911832036609, 0.2306244108143788, -0.3119895165355208, 0.6790696155403543, 0.813199365419945, 0.2883826931994898, 1.2562770394024247, 0.9720337349806936, 1.129996376368977, -0.4603771329719731, 0.150694079567372, -0.07504716340785735, -0.0003290967937625578, -0.3992502679606078, 0.8572865079650535, -0.7425217228395644, 0.29520167996622215, -0.9085596436464043, -0.9230172610693834, 0.16487394020339718, -0.33585597597159933, 0.6595638534163435, -0.7399277557401007, -0.18219495404813668, -0.5950966171883638, -0.453153067033463, 0.9945862689397932, -0.38825970342340455, 0.472070360357236, 0.054555964332610174, -0.5425571661820424, 0.6111494262770865, -0.37583107477334704, 0.9318323027721678, 0.11658208628019916, -0.6097620589658127, -0.6279849382202171, -0.12665766260160227, -0.5380549791362829, -0.7007831110350295, 0.4261094089420511, 0.7490230257348184, 0.05384029248572324, 0.7360168644755339, 0.9051317498729483, -0.33391157093116663, -0.568283765862293, 0.7329918171454881, -0.8368942004468425, 0.6664883534160524, 0.1903739205875703, -0.8413107253727297, -0.3482608301846095, 0.8393942344747967, 0.6237924248047237, -0.10086775554491297, -0.7812341091162207, -0.6236788146133739, 0.7764427704248016, -0.8786013108143601, 0.9946927103509335, -0.378282814940407, 0.12985836306262247, -0.7248531725295246, 0.37848508811506526, 0.77999452201214, -0.901209687852981, -0.012716065991476084, -0.008837447074851979, 0.982688352720308, -0.20617044997807452, 0.7270971339984847, -0.6220720123617923, -0.04501530197097381, 0.25305715814422647, -0.25410904519842137, -0.19361245720709608, 0.3843202728577346], [0.22630529004406919, 0.8877328274051848, 0.9291087461188368, 0.6993608207439341, -0.8538432188023783, -0.8202925881498668, 0.13315295121596593, 0.9170456446609623, -0.5071481921484797, 0.251684924928679, 0.39198367281343094, -0.830428291316984, -0.4325242908165401, -0.29132946281049055, 0.6130441641154247, -0.8233913346168835, 0.8915004959590072, -0.9029949480926616, 0.7265066131016984, -0.17309979686531718, -0.47600398374241926, 0.9481407424301642, 0.50007393609521, 0.9498902739452479, 0.5776147256439508, -0.06904586511263111, -0.35043635862041356, -0.9480276239395882, -0.09806930705168004, -0.170459915722049, 0.2522998018634153, 0.37046221180140226, -0.9751476017660383, -0.28963702013671666, -0.016113540991033126, -0.7009147000517735, 0.7125519673981575, -0.6181990626367788, 0.10244356661335113, -0.6074406979426835, 0.43662599643404065, 0.364421562428081, 0.5074693805715254, -0.6872468163021953, 0.04758845790847378, 0.20772861860484515, -0.12727772947927185, 0.00970854261973211, -0.48737262837331563, -0.21651327936450832, 0.8352364443253538, 0.8653260884799088, 0.9586834833790616, 0.71896781560296, -0.37492394087691383, 0.009331049810257452, -0.24730258226911306, 0.7934567386307823, -0.5859979159643043, 0.11711169789028264, -0.7082062485142968, -0.20705039050196072, -0.08926286408769624, 0.9049639023678538, 0.26167899927787974, 0.3304219246814339, 0.1846995984605207, -0.05955042804828856, -0.2622578759400374, -0.9979887877886913, 0.6987251092876046, -0.6293087849005354, -0.17684692609843133, -0.9937341901395976, -0.27283924067587934, 0.29529405347630894, -0.22747900164886634, -0.47866565087682994, 0.27020705801095646, 0.8831247135807853, 0.2255572509623915, -0.3129178185757857, -0.6505892211743602, 0.7592938221373047, -0.22679945854687467, 0.43362125930075224, 0.12521687736327336, -0.42462709809647325, 0.9688589467247151, -0.9988245460441312, 0.8306347678581972, -0.13824920401940663, 0.5988803846479059, 0.16312690087500642, -1.2018978184058589, -0.9402638680994531, -0.08856921669936466, -1.0696221346285364, -0.38889468313849873, -0.5667285854644667, 0.18489558998862723, -0.4838969161006504, -1.1246110598608734, 0.46898766673977177, -0.6468749409757872, -0.024877571061516734, 0.2826034656753083, -0.7783787945056002, -0.243673808842447, 0.7166896662852555, 0.863950690396317, -0.09314576217871995, -0.06212553820553102, 0.852418319310144, -0.6327718833301827, 0.9526573120835309, 0.8355730498077337, 0.1596807732782966, -0.36190095432140484, 0.15415089722068612, 1.0497043289009897, 0.2599543241291633, 0.27479853139945626, 0.15402422097790075, 0.6737824668633664, -0.5105658252536622, -0.6624112930272668, -0.48166235602544377, -0.8770964521314, -1.0542331864554568, 0.6125300718088537, -0.9372019083394434, 0.19583280927196195, -0.5264923045242045, 0.5117121321276772, -0.4710451911532623, 0.45404591321667404, -0.2508933877343595, -0.1593058685758062, -0.9336039040370752, 0.07058229062639931, -0.32230855691193216, 0.12374583224118041, -0.9355951504119654, -0.7655530650880951, -0.22584845603278333, -0.7658823731751726, -0.40188507813121527, 0.6807077421466661, -0.5101326640368011, -0.7623425994894771, -1.5858775453834781, -0.5477650837740113, -0.6707806537038039, -0.4548632227086938, 0.07840301207152589, -0.43655730416303135, -0.9747647135689774, -0.38300477456985593, -0.0016084607994043183, 0.31298699804754504, -0.6750663522298939, -0.9140112615623434, 0.44472487348796463, 0.8387153712085884, -0.14202130689774536, -0.10858526835815813, 0.49501589576190375, -0.6423957228641011, 0.49325983080528113, 0.09157091056918376, -0.4628931993507862, -0.22938433012951354, -0.12462854183314262, -0.027509565948055547, -0.7592279654338455, -0.0018200235177317752, 0.9812021523642603, -0.5033537762080567, -0.8100489196638974, 0.03766398010463829, -0.1797796522120457, 0.35186999851875206, -0.7375678779853919, -0.4884186897421804, -0.6834341214870526, 0.24081196984027636, -0.4667814905232352, -1.007963191711097, 0.7944506223849985, 0.283700842818894, 0.23412864707617576, 0.2696842293687973, 0.14903931637972248, 0.8639995312243929, -0.8466811178152862, -0.6349334130890093, 0.18231848235376816, 0.03595355255893246, 0.258852821383562, 0.24955214451981178, -0.05090423838068848, -0.33261631021814136, 0.2940031780001157, 0.2427421317590182, -0.4329827776582, -0.5939511158629783, 0.767864632095817, 0.20714889621758587, 0.47461575857744787, -0.4422978102252013, 0.7357331465988829, 0.830558044802193, -0.03674518513401751, 0.6608062608922705, 0.3615256588329717, 1.241648018607643, 0.7302318321555379, -0.27188390634464, -0.04016260980134649, 0.5905761409890373, 0.8291316291636432, 0.6157918036682276, 0.8609451710003029, -0.026988986706131316, -0.3228916606968747, 0.0058847348368217655, -0.794173732781758, -0.42613498255500415, -0.6109533992036418, 0.05481705652184159, 0.992319429604158, -0.860041724331522, -0.6137113464728936, 0.9250728452458775, -0.14708246099613823, 0.39202087830804616, 0.9137094457702815, -0.8083089477406153, 0.5170992194954481, -0.5227887149536998, 1.2274901186135356, 0.9875773914407435, 0.3960133003304037, 0.11505875554597292, 0.7299076044059565, 0.6633995121434432, 0.083786995939378, 0.813337225169118, -0.21720022003696213, 0.24091474959116885, -0.24576208553980972, -0.8914413639892136, -0.4032173842887663, -0.10991618314613258, -0.3420163483831775, 0.0920727921500815, 0.25282389639681635, 0.6924032889023027, -0.6732508187826416, -0.7160787338523514, 0.6520697281641191, -0.5890299016331435, 0.9631868231566709, -0.12297153814514282, 1.166922102133678, -0.4553172290121829, 0.9163920709072237, 0.3560850359019514, 0.42197205654231595, 0.2624802444092722, 0.3210571942369881, -0.16707630734678866, -0.5983515401553525, 0.33262695647776297, 1.1648607889981302, -0.08799769937993854, -0.6717452094168198, -0.4107746506659841, 0.3414496159332514, 0.5433405295834821, 0.8154249673986066, 0.5506862501291435, -0.8229898374018163, 0.4405287653310239, 0.25146961718658173, 0.4781945280523939, 0.5815888290554047, 0.37269876074242425, 0.09453630962284877, 0.7170363890231473, 0.856570908613546, 0.5998710344048346, 0.7069885329606457, 0.3221632426326584, -0.18593485371455876, 0.8596357605789128, 1.2188395213792376, 0.46851525840454955, 1.062732435210291, 0.11514245596245777, 0.6506937627396211, 0.038733793332480206, 0.04370550651351958, -0.5689017321788313, -0.8705901192447991, 0.14484630304961932, 0.37599461910319865, 0.8249938972531485, 0.49738325077799755, 0.8990484657753839, -0.2891530483588338, 0.5074965271510515, -0.017569663116484474, -0.22574324727030057, -0.35184976804067614, -0.01624819233878276, -0.6027240393005536, -0.6120115012874884, 0.45276226278782694, -0.5214727328663815, -0.384668858056956, 0.3043897234427488, 1.0274086559811613, -0.266468573998768, 0.21997012291317006, -0.16749290590566146, -0.53637834687926, 0.24943184914969155, 0.4709676222995172, 0.49312390261423167, -0.19876376058754036, -0.6242630680580247, -0.0965460968050986, 0.6186104327302963, -0.9669922599840093, 0.6690957396014179, 0.33050231468008107, 0.4872735113246059, -0.7127458779779644, 0.35689672169707554, -0.6433278263894399, 1.1173810092722702, 0.09945425494457516, 0.9026654594513238, -0.4803959567207009, 0.5392058850788384, 1.63479507430239, 0.12844259583276277, 0.23576948596344993, -0.31400050301931925, 0.7400205071433689, 0.5202090815772089, -0.14637703016959974, -0.24241427754233785, 0.8447596460728406, -1.1218005211646571, -0.9148402876347038, 0.7286297853201293, -0.12398390708785707, 0.8958616804151208, -0.16070722969075324, -0.9294939815356071, -0.19035749793558732, 0.4086926422038577, -0.17984052098361616, 0.627896922049302, -0.8119696394210515, -0.7217155866582435, -0.15425928186277282, -0.30928648043676665, 0.9868234386168264, 0.7398332322408802, 1.2947317553045266, 0.7563949044892478, 0.01791070698980006, -0.21203743058506863, -0.06683590165975052, -1.1666267656765714, -0.6508913536416656, -0.20924243339100712, -0.2648964834139135, -0.20836143664312923, 0.8386808100438179, -0.44148386505335435, -0.7700246020238475, 0.3235269175328624, 0.7403500509093305, -0.5816701960316886, -0.843127275042908, -0.5154964114218991, -0.2753387512686034, -0.604090323412187, 0.8805968897508674, 0.7170467945681085, 0.3899622187077539, -0.04689414419902469, 1.086054808515025, 0.16238390928147423, 0.4523158914742695, 0.8936310663127084, -0.12316164216924222, 0.38278479267693677, 0.6762414634431013, 0.850791890297118, -0.860786977797953, -0.5313013763579345, 0.11123928707511462, 1.1145318733035288, 0.1622809539188362, 0.3699606826278732, 0.12221338120007894, -0.6141530801759346, -0.6410440475394198, 0.13484876021450481, -0.8429300388996817, -0.9439086871630484, 0.09936338937616002, -0.4547234245436623, -0.2109291062503147, 0.6988728942789482, 0.2720247351193126, -0.15076211640792914, -0.45769594502542094, 0.843131674381891, 0.1477206307084691, -0.436398203797225, 0.8549825329472893, -0.2285315183079871, -0.7227020637562772, 0.3181171046230791, -0.04211589768719637, -0.47791458869227205, 0.4138615688181316, -0.35010759198213515, 0.06324484191484199, -0.8818827810178945, 0.6416006358326948, 0.42712325190181105, -0.18474667430462063, 0.39992445865251797, -0.18459472890106268, -0.5672585690452374, -1.0394384851933594, -0.2607565445800365, 0.37489475201095973, -0.6070692708133695, -0.3238033679445298, 0.9306134826651653, -0.21431046923127428, 0.2223479401854779, -0.23383131166370413, 0.6212833018965207, 0.6502352170062827, 0.6296338921029914, 1.2456300785712564, -0.09609308265871323, 0.39958654107728236, 0.049489483062624705, -1.1614120975007454, -0.8389308379704734, -0.53061645512057, -0.7005262767064182, -0.4895869075072414, 0.22209239311090484, 0.47642532702793877, 0.4160093595446052, -0.3477745425252784, -0.5432580053433143, 0.21391074468156807, 0.3927852852852093, -0.1241386271432884, 1.039848435060037, -0.918879221070536, 0.5164407762285953, -0.26496124664733367, -0.1073591166597716, 0.6967422153080847, -0.06466730956895975, -0.2251326310027279, -0.14054723665535077, -0.5651390034867962, -1.016684078497351, 0.47693169192368634, -0.6565739323387884, 0.3380875285064263, -0.6532164720611596, 0.12211253853607845, -1.1026592533373265, 0.03534393372271148, -0.11670799477004429, 1.2004641354295578, 1.1240461771100523, -0.3273279970534757, 0.09311174723831085, 0.5356537909128151, -0.07211993763930243, 0.3185899478233512, -0.34004651264198155, 0.682869060165475, -0.1907329458847458, -0.7357227430114959, 0.48522620544206285, -0.959325535736038, -0.7837529341053655, 0.9673930048029367, 0.038981125004311626, -0.9690788927575836, -0.3637688269952327, 0.9306670664541946, -0.044719447166335594, 0.017078316449087395, 0.5838894872260426, -1.3325483507409783, -1.2717175283820183, 0.5665466481315714, -0.05046024051081009, -0.7331145192722734, -0.3295654449925283, -0.5442595152695663, 0.5216539932138059, 0.04320843034906212, 0.05619475567450829, 0.5332885914429671, 0.15920537741171067, 0.8059153531682238, -0.8342859432807059, -0.9842271366629454, -0.10793731156338049, 0.29065754891537093, 0.7142931676036647, -0.8371813743964709, 0.19881654241243174, 0.7544162174334843, -0.8828153478249308, -0.054194709933673285, -0.660951524131422, 0.15156449179584128, 0.11933509279121797, 0.6616295057295339, 0.402123707017002, -0.303373004308842, -1.4076413701759098, -0.4739753647838926, -0.7234489409929942, -0.15863263015720117, -0.7753219070756904, 0.13450926722699857, -0.8629049324235724, 0.16970941229391226, -0.3424757812553047, 0.28981458181776215, -0.9105654732624058, 0.10196399009105427, 0.5405269044895463, -1.1373193977604505, -0.8470835985806091, -0.9163764872589409, -0.8248052968862166, -0.37363402658487643, 0.7418140964608322, -0.012437476097646227, 0.005667201424938127, -0.12284809181231741, -0.3812672644507579, 0.3648493374416201, 0.17187408207856208, -0.6859216301928465, -0.9969073952262755, -0.2826689515865299, -0.8069525552407804, 0.4248621374829151, -1.1727440578284118, 0.3161465753990138, -0.5885970968823899, -0.012015439209546003, -0.8605350138236663, 0.6290081925391056, -1.1039806112544348, 0.2039721261631936, 0.3157396054891172, -0.2852366619380097, 0.09302368264621899, 0.09351250446267823, 0.4435386104638169, 0.8156412676648435, -0.43210085551757577, 0.48176181713898614, -0.41512375325549344, 0.3891389197857449, -0.6879022923563111, -0.44301257513028536, -0.173528013541551, 0.1096309886097492, 0.2780907752191034, -1.0022997776486424, -0.39587937452395683, 0.2527112356205354, -1.4010196838471558, -1.1482695992016159, -0.25630408161981016, -0.16927154401067449, -0.750496380856133, -0.16277472941230825, 0.2476317995422132, -0.6623589894003823, 0.11001128430684261, -0.08600302991247852, -0.5087801127139769, 0.5263169337150068, 0.2102908972683483, -0.1401010708875167, 0.04216355712736698, 0.3098688964835354, -0.6051493697986388, 0.5190405621339256, 0.449436067456475, -0.11287993944927521, 0.06343489333099064, 0.9183782196316237, 0.22343953339980166, 0.721869108921492, -0.07227276529936896, 0.5299849465572326, -0.274525087137421, 0.9047516905630781, -0.3132392390833596, -0.29636656351203355, 0.6740731489336215, -0.528616606665138, 0.4308145176378931, -0.11534309299507366, 0.310517134060438, -0.5251423702431519, -0.24298170703818686, 0.5016879680097553, -0.05450796888677744, 0.9579649483815245, 0.6451790642382558, -0.7454796175722016, 0.7663604808740214, 0.8565170628024967, 0.7253301842693521, 0.09600130796624629, -0.10336868168808033, -0.669522527174659, -0.22560034694038658, 0.41143485547361824, -0.7015915336528664, -0.8833744912986229, 1.0250286768725236, 0.9835195412664969, -0.03283738415619391, -0.24922054382022826, 0.19160897059644133, -0.07537324253462527, -0.05363666769009034, 0.9889877471696197, 0.8872455933416971, 0.9667891319976712, -0.4697302067176845, 0.3564380506530131, -1.0630720482970302, -0.0676486626646118, -0.8289520602988047, 0.9367921238354183, 0.012593377658377657, 0.4044522560334878, -0.44531313810146783, -0.7591975882993061, -0.7789504020824047, 0.12057225446163478, 0.6581000248939464, -0.9148804720600232, 0.4397634704181641, 0.8732688748791325, -0.16246955227673218, 0.7155153183375285, 0.2545725607180277, -0.4367034696307794, 0.8164417265229483, 0.4490836204997511, 0.7806733843745888, 1.0449115275616372, -0.6932220273915842, -0.179747044873895, -0.08997615086349524, -0.9424358967669394, -0.8672534633544231, 0.3719202784441633, 0.40161892551225203, -0.5980501127767556, 0.020570670838391595, 0.7673886158788099, 0.9905287894863637, 0.7925260216830127, -0.07456846304069056, 0.9661899832998444, 0.5215195956494116, 0.4969916803773686, -0.25606168429063314, -0.7163879024897799, -0.5455461033206346, 0.6902309438706109, -0.02218465794995486, -0.664844558733244, 0.7561977889790393, 0.5897125832204136, -0.43148078944392243, -0.2030467670585338, 1.0270866960863645, -0.1251074728644918, -0.17596828877479342, 0.6044996576866539, 1.1040565053001876, 0.28198975422557665, 0.8881168628201657, -0.7677156963960208, 0.92392198725134, -0.5164764315841613, -0.6921640824644371, 0.530456288142648, 0.735402568529085, 0.8763931251804098, 0.18406269138473239, 0.01142750635866241, 0.2302383718356824, 0.8640164561954675, 0.7620873474911116, 0.28260974759082913, 0.9073696033166521, -0.19326944899724882, -0.7046421992583803, -0.747524277580403, 0.5914789842196843, 0.3223083428141423, 0.05460077751796539, -0.22430683316395825, -0.5397338321991252, 0.11045745319857492, -0.09633206731197574, 0.4702284906713598, 0.48836853319556767, 0.5054373205388641, -0.18312339039475853, 0.3352585625829956, 0.41432626566406705, 0.3837165592055281, 0.5671792156000702, -0.8015183223991277, 0.432706158495911, -0.5020109077996295, 0.8394838619521052, -0.3498250152210092, -0.9084192329066505, 0.4425009917709144, 0.8823997073236141, -0.7743586159096834, 0.4560201506170207, -0.14739631783949836, -0.11101639880751302, -0.06134086571047482, 0.06709709416437609, -0.3918778080993478, 0.19555366404325752, 0.12444812861597951, -0.3860048066246867, -0.31933556138895, 0.9032737511949532, 0.27212959682939886, -0.9310693472996066, 0.6033397076348039, -0.013334238094309872, -0.2803871304578158, 0.9732993450665373, -0.514093115311817, -0.31808337104410844, 0.02096412236091074, -0.14748727114219828, -0.6621015642525385, 0.13165506712303654, -0.9570044605417769, -0.22736923488796124, -0.3013283120268213], [0.8764188660928056, 0.3456434508563102, -0.17639495584583487, 0.6877091571573488, 0.721419980908867, 0.6102146284569414, -0.7663985591508524, 0.5701813796985453, 0.35356994699141353, 0.8309382498219227, 0.8897698079246923, 0.2008977049565197, 0.575426838337977, 0.12771304086229085, -0.6854533624558456, -0.22175464119920885, 0.812520217880059, 0.4120422720889665, -0.8190211632035562, -0.7068198437795654, -0.052303569651403814, 0.420188912060514, -0.23958505535694852, 0.5141847970755835, -0.70948970237935, 0.5773716421574022, 0.29299184211149276, 0.4168996739537021, 0.18303650615910882, 0.8506710204152013, -0.7472612043322127, -0.20111432385648786, 0.5576859669693308, 0.3843192505101205, 0.48515740013343267, -0.9077899516915002, 0.6831373866255213, -0.33800794171179516, 0.12823225337932112, 0.6882520999761814, -0.7952951025249583, -0.7742994667904468, -0.6350274122450191, 0.3600332968344879, 0.7590392145353936, 0.9801476048207257, 0.37849993091980566, 0.17038020197508538, -0.6875991843804107, -0.5359572713870495, -0.10715167030450663, -0.4815038993798293, 0.18554297249770757, 0.11311216108671318, 0.5114656205887544, 0.44881646475563497, -0.6529569919504778, -0.26530329251296014, -0.08848807124061775, -0.44310174104178857, -0.8374261605801463, -0.25894536385925937, -0.33372421529891727, 0.5491676022764014, -0.6401003025634229, -0.3376715246330611, 0.12413459746665777, -0.6827174539636706, 0.959290692491415, -0.8781761483296462, -0.3754590547261159, -0.49683377510636495, 0.14145767075070226, -0.14641919069512874, 0.504994362544239, 0.3102652204101087, 0.4177915097585752, -0.33138507352826685, -0.6382516033877961, -0.6887517975726086, 0.21757068660051782, 0.306500051266434, -0.4154536665812898, 0.7996312033976662, 0.5437389959469086, 0.8855091219879059, -0.2994134189054727, -0.8860074152594064, 0.6056263178480554, -0.6627055406628097, 0.5803998382745449, -0.8105371960068822, 0.8045036645657595, -0.15742925318694856, 0.5981028371025489, -0.2770570866008745, -0.3301890273811344, 0.5515009855893265, -0.49431060209180633, 0.7773579360980426, -0.3247737891857005, 0.6009003160504051, -0.46129146737017107, 0.40703623473343015, -0.6617721301615991, 0.3175641919877433, 0.7921933505808679, 0.3873574775436739, -0.12247432087234769, -0.3621408039963656, -0.3607139492336384, -0.8474915272082431, -0.19989832434319044, 0.2130864570710691, 0.2771416397274211, 0.11721176219138196, 0.16566361512413585, 0.3548192739788378, 0.9419711703052076, 0.592025119792955, -0.08252272051951917, 0.7259761992014815, -0.18483738585413012, -0.08649700617573317, -0.18073037365632466, 0.7760237077709691, 0.7496508611784319, 0.27810989122416196, 0.8376857454896902, -0.33502719199431924, 0.0838092275109469, 0.0455852583089396, -0.45591659774390575, 0.38941567781636, 0.5897487732103962, 0.00898774648714819, -0.8176292427310252, 0.4981573424242743, 0.8729046867525185, -0.1431908191670097, 0.838197423826885, -0.6797787586939115, 0.7811998664778002, 0.8049746807138466, 0.8977283426422547, -0.14580153714932845, 0.12815329897572947, -1.0270201689471443, -0.9086097394399394, -0.06480076859426057, -0.9699542018332645, -0.24687667350236803, -0.06782461083873163, 0.6748668451653765, 1.7620631037132453, -0.26964004360376387, 0.9187668784324262, -0.5708178452392197, 0.4322005353698183, -0.07772767282085202, 1.0863042679429822, -0.21549155718419097, 0.5953239561049418, 0.4957867955807633, -0.9040012774742848, -0.48699900376200483, 0.6618497562043776, -0.9394932946357719, 0.01227579375183696, 0.4351357152931141, -0.018009995835080783, -0.2661639150777254, 0.7860567372619551, -0.4705995305746977, 0.01712078871059993, -0.5700283299827344, -1.30687824276237, 0.10692461914740084, 0.09790457413575641, 0.6782891677524125, -0.624608918421916, 0.37665573723060536, -0.3427049865898101, 0.6544106519131382, 0.555924411786308, 0.6555604077020413, 1.0272886064382838, 0.2597644714220301, 0.5967264247182243, 0.2075484056399215, -0.4919420079299786, -0.022520928529513626, -0.2758818617385124, 0.441563146919688, 0.020550861660047607, -0.8146839220786952, -0.6103698558807678, -0.4342944284004513, 0.6759931886684557, -0.13307211973596317, -0.4782216430422543, -0.38474953836778003, -0.6949451837531342, -0.2967106546595443, -0.35884280707741834, 0.276896494299764, -1.1437995885915453, 0.10365689762976488, -1.1493339438232921, -0.544992892256169, 0.18751788936843736, 0.8904797435673284, 0.17397272424444754, 0.4508845324584984, -0.08291958443984367, -0.4613544178125008, -0.30770477687582476, 0.44230992421535054, -1.1673341225184612, -0.1581579140462774, 0.37416954993167284, 0.31383524788856354, -0.6503252331802689, -0.8398273636505188, -0.8853046727410759, -0.5776537378552613, -0.7575332443331564, 0.24529282597548574, -0.24077650711154414, -0.046205313861090065, 0.2588787310642952, 0.19110202218760122, -0.18676686078762858, 0.16287765948746902, -0.3911217488637625, -1.1546252177919731, -1.2518194207607234, -1.094852006100363, -0.6646107945292509, 0.34366511565816577, -0.4552518815589654, 0.5417436278284437, -0.4337704808948399, -0.9975439631252251, -0.2859735963817221, -0.6648773436351111, -1.300329112218129, -0.5273634856346789, -0.653931149193629, -1.0821206845647635, -0.7595182977917546, -0.08894102881404309, 0.30029783354922907, -0.5816676126553803, -0.8355817027416664, -0.8551279709520909, 0.3593886630505255, 0.4742795851774155, -0.834870327122132, -0.6794730232658286, 0.2552906999271567, 0.031696747559144374, -0.061844693542805564, -0.15009672698327742, -0.21725649890031923, 0.3856140185871132, 0.5354801409341617, 0.21063982761836333, -1.813898441168491, -0.10163120581229851, -0.6393240544858296, 0.6446733840323605, -0.6347671682156204, 0.9852920581791366, 0.5833515614217301, -0.7791257841054396, -0.5138593337336832, -0.19601811320975562, 0.021006628755078985, 0.6126479425424403, 0.44383646229939244, 0.5748714571828345, 0.7514801542171787, -0.12324237071467577, -0.22455576413048922, -0.3205622526477757, 0.526985818789078, 0.8594884379421551, -0.1620102836443681, -0.4245446291508198, 0.06116232190586739, 0.9854171100534416, 0.46847483907264625, 0.09564679672178775, -0.7293092878730234, 0.046556364419059665, -0.2629507269807719, -0.6236716553380998, 0.3411200731240863, 0.6026165566751678, -0.9611356175178527, -0.06423685600133792, 0.8044646461706475, -1.0422648172456708, 0.5531744828682152, 0.6792378919538362, 0.9023436855093359, -0.6215051150230158, -0.9004938274672254, 0.527968679394847, 0.6927376092605441, 0.42509787024657175, -0.7751720930117815, 1.1027319082087634, -0.2720163859943419, 0.9728796682979035, 0.5094558704286258, 0.5089419758853919, 0.5125456030278587, 1.7307968687645912, 0.11390711874168294, -0.5945462886236138, -1.2362113179149774, -0.25412829865241915, -0.4699735858614185, 0.3242316932054301, -0.8856928488255668, -0.8062112538103846, 0.550997240833666, 1.2553670494499867, -0.6618694701481994, 0.16388032680978298, -0.9151347714546372, 0.009380548123372433, 0.6150438948689381, 0.5008804712672981, -0.08303957456317201, 0.8081835748273731, -0.8405256911004445, -0.1657908499296323, -0.23010949628232183, -0.26882745805802843, 0.8809824592219139, -0.055730797625673546, 0.1100297902836847, 1.2051849488651498, 0.2790011878764071, 0.19071858240235787, 0.4344351232470583, -0.07298156278737863, -0.09148256829483709, 0.45368508473094227, 0.29404330493756475, 0.1740358361841032, 0.020733226380016616, 0.771614795135634, 1.084540694380147, 0.06685790532540811, -0.13020169506874318, 0.7376178488191567, -0.8133401108374703, 0.1787626568103486, -0.0025351542972567626, 0.11018825602705062, -0.43726576040209375, -0.0367453357699294, 0.1948543185174567, 0.4718669842596268, 0.21718410775094557, -0.9047719510574352, 0.9667888559903797, -0.39972514928085545, -0.45305023752910684, -0.19486199015472638, -0.07476065071341806, -0.6712333321632346, 0.6350041934483859, -0.35956462165880476, 0.3609923516892779, 0.7966993927351935, 0.6655206845112539, 0.2948528732992949, -0.7440457946085913, 0.31175074453045915, -0.32641940892914545, 0.38859937296406655, -0.4987884122467057, 0.09023229366799482, -0.8606454120924248, 0.7168704035024214, 0.6188809943961666, -0.28466398987555386, 0.6878580353218664, 0.8708584118045106, -0.18850885563860767, 0.6902783241645867, -0.9200639290220901, -0.2183555505938497, 0.5859905584187053, -0.9262346309971965, 0.16859338069954297, -0.07632455391008831, 0.3054813403450001, 0.19177496160151639, 1.217438682205996, -0.7130853275739641, 0.09444454875449021, -0.08192789886594624, 0.7514055272456104, -0.4502431171316538, -1.0043277736378524, 0.65301219122201, 0.43307805475692795, 0.18285151297461044, -0.25697683872708094, 0.6180789634688797, 0.8752692834880875, 0.17596027458388452, 0.6598839288972256, -0.4862244600707273, -0.7625782132361272, 0.5720108977257978, -0.11973472731570589, 0.2961057262786958, -0.28734628600841455, 0.5908273582886444, 1.0422959934816873, 0.00609568782798532, -0.1576371339333105, 0.6587861067148774, 0.7222051984671164, 0.31124986816715594, 0.022829270092621295, 0.13607617252927123, -0.6323681954387127, 0.021161856142601364, 0.635784568026023, -0.5814793179493556, -1.1929701076013384, -0.3633877509373997, -0.6608257023879602, -0.1452148148803596, -0.9298583826359205, -0.7579153054473798, 0.35234113163723263, -0.3954356450502148, -0.30742541540232565, -0.09949353600617572, 0.7054844777851967, 0.6236696544438998, -0.2510570371065573, 0.9094033140767525, -0.486060566552735, 0.7057811601297246, -0.20163058363768208, 0.6900786413625558, 0.9936137493518863, 0.24843053541337082, 0.7529779948999966, 1.3375843188633916, 1.223858805393393, 0.6753922426077984, 0.26037112155808995, -0.0881352790437799, -0.37623614185398774, -0.5909112901085124, 0.06754361176256186, 0.5779527421673515, 0.23276574403279454, 0.7323270444670604, 0.9937820111257527, 0.277560105648456, -0.405379072489827, 0.22972192169163497, 0.31645661094812894, 0.4984220099201597, 0.5367427856001405, -0.3390789170603099, -0.9529256936980323, 0.9471730312546532, 0.29899947136649807, -0.19437732625539247, -0.15163991219712097, -0.8414753873279646, 0.4960864818822168, 1.3688191644307173, 0.43440015997050085, 0.9858773334383347, 1.0371579669596598, 1.117858212391556, 0.14109509022212346, 0.5266948984295939, 0.36501678449227054, 0.3561370856390517, -0.9331499862492345, 0.42662673415687696, 1.365529623586165, -0.6367617171372226, 1.1058818718509913, -0.8139856013967711, 0.21529234274550382, -0.39028066378781145, 0.011932287495850059, 0.4289899113606606, -0.9062041060457453, -0.30796116899152026, -0.008294596908393057, 0.17669266016663565, -0.4753536886179424, 0.07998509727706296, -1.00429881956958, 0.5047082248129875, 0.6865008182864382, 0.5140978594226003, 0.37125251165796425, 1.1873700747973872, 0.026477310343230406, 0.013575777025896235, -0.5298002163255638, -0.685405024279134, -0.6382459053116538, -0.8565862853417132, -0.49158361237708237, -0.7426715684840571, 0.2253439664662352, -0.07761472960997295, 0.028723956651023085, -0.9318394093356214, -0.18754536856043327, 0.17303893468238965, 0.44420318838413597, 0.3753435810727975, -0.3035731895743552, -0.13748276658638847, 0.557061438075891, -0.5718748621862362, -0.22031908828887614, -1.0407179477859156, -0.025493997158479074, -0.15792348282615978, -0.12097886772568632, 0.8826472645680029, 0.12734240547967882, 1.0047416879825355, -0.11269334893088401, -1.8326447913235824, 0.3499684209033716, -0.5899909465054691, -0.6423322001755172, 0.8903340027028166, -0.4921436837850546, -0.02333345178129477, -0.13154535777635526, -0.24080778129790636, 0.032694396912617794, 0.018116925391659155, -0.6235876548995515, 0.984761305605553, 0.7356627810830054, -0.15655234896827375, 0.3064004132341904, 0.6293988515513518, 0.17781479303900444, -0.22144848678128992, 0.5886439277063332, -0.39670552073573423, -1.0986853457230268, 0.24702167560778832, -0.6877827232060683, 0.4912469154435605, -0.34033168940101866, 1.0026206279495975, 0.5338082403008212, 0.23106089291693935, -0.5667066765816038, 0.127426239429234, 0.401277879686521, -0.2651581609430037, -0.880100949626038, -0.4109114141258902, -0.16335470198370927, -1.0638883371615941, 0.07644019684715214, -0.9448038108974813, -0.21429356324987175, 0.1474863045322062, 0.24351420835469112, 0.19969499321170137, 0.38716720755197653, -0.07663627812806872, 0.3850788494131617, -0.1911988859952445, 0.041107976843181356, 0.18439499679758267, -0.9579051309601159, -0.06832259141953621, -0.09846816602388819, -0.28196914318604344, -0.24539427019765242, -0.2131402060986547, -0.24182797791845712, 0.9390487727002793, -0.6953687639359672, -0.25500646260608106, 0.2053380637112831, -0.8900931182554568, 0.20726000386004872, -0.28499604167748915, 0.7864265741088987, -0.7204398940382251, -0.7283015264566094, -0.884860842674806, -0.6411765902713179, 0.6251174166050293, -0.9439318118429357, 0.35360428788910725, 0.7564993366751924, 0.4317506383741265, 0.5750886189626696, 0.7999828355681671, -0.2439089757000814, -0.0037521729011701544, 0.6593010280566128, 0.8538229216584773, 0.18805426164758135, -1.0096148532139482, 0.14716685004824323, -0.8339939877651642, -0.1966813908875889, 1.0112857381782479, -0.8649746719421585, -1.3107122562123794, 0.23158046847582284, 0.7398873075982328, -0.023380234885673454, 0.2762044022599229, -0.33845072255149505, 1.2259803946570287, 0.08394552512490881, -0.2759846300673261, -0.07383525500023984, 0.17181872402989773, 0.9315906959687295, -0.6853080485655167, -0.6155432414674513, -0.9120354188462743, 0.6049883867561044, 0.09113830490348453, 0.45522855357041214, -1.2166513270005699, 0.44869924583228316, -0.8038832541399795, 0.5540403678785539, -1.193241342333199, 0.011546903859743097, 0.7225020166974058, 0.33733118009209917, 0.31136396418522294, 1.2158870336942358, -0.5327096179813741, -0.6542333752087739, 0.1713026500828365, 0.5828089453763959, -0.571943809077831, -0.03312324344771046, -0.4922965135334198, 0.7999112034027596, 0.5679673522150007, -0.15884701548587263, -0.2729287061481145, 0.4723693778295972, -0.3175971752669744, 0.22395677001537173, 0.45326055354358696, -0.5973340292787659, -0.668805260162124, 0.27293844520889393, -1.3555672137348165, -0.04180447380215934, -0.8175963480464534, -0.20451694482590535, -0.8714317845749443, 0.5495857120678658, -0.42056248880774705, -0.5306953322774538, 0.23422603055989016, -0.03408688796239665, 0.08569811874326544, 1.6425994299030748, 1.1550785097505596, 0.47433017924944926, 0.5373968830774065, -0.5308041963392873, 0.7381739598162127, 0.1369422861218582, 0.2856851105661702, 0.48065049384597214, 0.708821527514611, 0.6156136143744109, -0.8612452283974628, 0.9274721138961337, 0.9720817890324598, -0.814281122476652, -0.22392625257826318, -1.0198870442168044, 0.20123477389203687, 0.32166780594641803, -0.6034690207155625, -0.6642585815463141, -0.05371424861393961, -0.14619270001083082, -0.9568586986202343, -0.08419840576399026, -0.9452268059336679, -0.893295570605916, -0.043701343080685746, 0.039151390472724985, 0.30220127841107935, 0.24735166290590022, -0.6738404550872721, -0.5416431336073176, -0.10541316959182058, 0.06798506897926554, 0.33078408533420045, -0.4488769363807261, -0.3325156366013815, 0.27342025161013006, 0.2986641646160757, -0.5664598424280338, -0.29395162993401214, 0.49322508057246073, -0.18829780647755295, -0.15764895545241897, 0.31628511725939773, -0.11950797961433021, -0.1129003844584218, 0.023787258294895516, 0.61726488278644, -0.5699596612046605, 0.3744588657934996, -0.18800262696752237, 0.7839778626747482, -0.39614992990577375, -0.8161396007502156, -0.0092574730192389, -0.20834284038406353, 0.43470518945882175, 0.09915316146062292, 0.5280931319605031, -0.3347758421997746, 0.6371541310705162, 0.2862471572315517, 0.781691484696521, 0.8119720892184845, -0.09838786310354108, 0.33440353887752416, 0.6235538943093941, -0.6023164132914407, 0.8686937111785893, 0.543908008635932, 0.08877459547255162, 0.5017013471124723, 0.5963767117880534, 0.638611338636483, -0.7671027223759942, -0.9793915257754721, 0.6110118138446451, 0.4137773251412661, -0.3890009521645895, 0.2989261845069367, 0.6488668025307005, 0.6513408931590698, -0.8662709635751175, -0.7525546357413665, -0.4381040656345685, -0.6658747861338714, -0.626995459085102, 0.10801268686643899, 0.6115263830622395, -0.46782158849990463, 0.10097919000547928, -0.6592400018081404, -0.5849834031952699, 0.24804299237881966], [-0.8981975353245193, -0.8148410178211056, -0.9179839819184479, -0.4302574212003736, 0.10652921536499527, -0.8803144221660015, 0.7788801190784755, 0.15552955793253953, -0.8253927660423346, 0.8244448075001634, -0.08578484414279974, 0.9674268904497967, 0.32957766314335224, -0.4082932845832763, -0.5391789165122447, 0.25251082308335904, 0.8309925815956853, 0.6236781554294375, 0.7358733765143146, 0.8397432416445192, 0.4125744726641256, -0.035974526033068166, 0.47445781689939803, 0.33921274202839546, 0.4187592515494909, 0.8512848390364063, 0.9658214040046975, 0.25395366848189593, -0.9933826773868262, -0.051883829306381024, -0.7443674619813572, 0.5196847343197959, 0.7269453151396639, -0.5408896229598954, -0.5660578169386123, 0.42441094019408543, 0.3014340594879885, 0.7859101790082814, 0.9079252375973157, -0.1356065754358192, -0.5463516994153872, 0.9312793361721181, -0.2918078459282258, -0.32174054115022743, 0.35869005740708354, 0.08201421081801719, 0.18239890600557082, -0.23946555510387654, -0.05728139855072437, 0.0455965050817882, -0.05885936369899618, 0.861500642822765, 0.23290359367561608, -0.44078230142533936, 0.6282208467348269, -0.704086025546449, -0.7757705010975133, 0.7209719259491632, -0.9465340437038405, 0.8096776952855107, 0.737881351898261, 0.01179215875921713, -0.31751222064478624, 0.8299351203111064, 0.2539089494659423, -0.8239233494297414, -0.042414639528465144, 0.6996160274295203, 0.2039752392063983, -0.11367388120118536, 0.7725110575833433, -0.9770431278004451, -0.24276620217262207, -0.6727731938673004, -0.08442453473390957, -0.4148198194901343, -0.016149375134488133, 0.03241848163660046, -0.26347504705953956, -0.42987182797792345, -0.9291659185980081, -0.3355851351103645, 0.9985977839333366, 0.8019646987318887, -0.2248726700478605, -0.9423877372902576, 0.6947395771869722, 0.6623270714178757, -0.6536944645720142, 0.026947253117106662, -0.9239943027439137, -0.8875183888603662, 0.41652289599288644, -0.16770321153875634, 0.8142043071589862, 0.7527334180898481, 0.05338394078113809, 0.6013891490301878, 0.447743714553254, -1.1344564915787114, -0.31974913598351695, -0.23182763889930025, -0.5431297051279319, -1.1205574812206769, -0.34945836817955445, -0.4148380041810973, -0.8852439183778308, -0.461339066985235, 0.018880939196483513, 0.9160021327256169, -0.08218873635078361, 0.6429879835050221, -0.8855068367626902, -0.05330400769071142, 0.2975134513425841, -0.17191986182836105, 0.7874846309235989, -0.7336523079745386, 0.21360882615779214, 0.19520832440559785, -0.32013162659688726, -0.9783233572802227, 0.5855383435160828, -0.006543498294277505, 0.0016031127193779629, 0.7189609249073143, 1.0400326614261055, -0.7306385579813931, 0.28852253128767674, -0.03843418408328649, -0.7290356491122935, 0.18141281913442664, 0.2668317328245308, 0.20755101761709754, -0.7593916236361274, -0.8997697105554063, -0.04164995116326459, -0.9277938447260177, -0.3949226590468635, -0.9053746320900484, 0.2918973403380214, -0.9509747605568233, -0.11000270789812072, -0.07730353887135412, 0.9706420455688279, -0.707635479114453, 0.2724310809969709, 0.4670901700125621, -0.5674309669603567, 0.19053860195907288, -0.45201122195783733, -0.39982116081894914, -0.4185886494251388, 0.8037371481773052, 1.0405713124587042, 0.374753359379407, 1.988664494509609, 0.3137958361740159, -0.4849006226508227, 0.22827888652006847, -0.15249679069576744, -0.07569141131192036, -0.1392091234068504, -0.6245954195828195, -0.08361542959882881, 0.707211578068965, -0.838951821228465, -0.25875479451102157, 0.07893015505821022, 0.8225504928521348, 0.3832429850053056, -0.5944066998063807, -0.7581810732275743, 0.6551406655550365, 0.04980455398849888, 0.21741984321544533, -0.047899408042463364, 0.24207410148158137, 0.564501887437216, -0.27173117746432923, 1.093925228996286, 0.5441976367961338, 0.5676935071504472, 0.2426027922721218, -0.3254677206800597, 1.0468114675553577, -0.0953042983863217, 0.026454419310327125, 0.9244906723814339, 0.3821421262406092, -0.017376273978090554, 0.3168353058020085, -1.129337552127582, 0.15594926388644048, -0.8103526775888661, 0.9701259005853565, 0.11230126973520088, 0.7731581820358706, 0.5414905212011105, 0.37794824977343305, 0.8303068103194083, -0.18156764933576044, 0.015171885994218152, -0.38255064965177776, 0.37431511397710043, -0.5050209259165623, 0.4335112444770455, 0.6359003584539582, -0.336923762319436, 0.08004597873084539, -0.21470875024374783, 0.4608929926352977, -0.1516917089671557, 0.609511941042174, 0.7422191215989568, 0.3943190212631667, 0.29487713022359796, -0.18986113218220782, 0.5343885398251702, 0.3431213713940178, 0.11331522515654875, 0.5262536795051799, 0.1751947739915488, 0.23217204667810415, -0.259467323343358, 0.31683976391068897, -0.48074955635171285, 0.38946461338070404, -0.8025479768772339, -0.06388661095740344, 0.5669026740746526, 0.7404936363961084, 0.5545536216964113, -1.059141222861091, -0.13565291701810223, 0.29452773999397, -0.5027724081442361, -0.7579748799392015, -0.35934807094340404, -0.605678861962231, -1.165956381542633, 0.9329623873228986, 0.218875096315247, 0.47794170536537395, 1.0420583212478132, 0.14341772434700037, 0.6446312967777373, 1.1178020815968501, 0.5250397872293944, -0.028962022384591272, 0.9345140787174976, 0.7728353233864, -0.8719509397567983, 0.0012686491656260554, 0.260603510777614, -0.477166349858686, 0.6815629225877105, 0.12387313302357333, -0.9214656958586458, 1.6489194156763152, -0.22295125160764187, -0.3654862005647885, 0.05507710505373453, -0.31019480094678886, 1.0208605758096392, -0.8433871446497562, 0.07298361799476426, -0.1127801205713958, -1.212193921834948, 0.2710701126158604, -0.10135715668220427, -0.32126021896751594, 0.5113064852548957, -0.5521561462931796, 0.9224718219152064, 1.1639124971317307, 0.05314161429608951, 0.734029704600425, 0.3286241013193255, -0.9411970635216047, 0.28258450636266086, -0.2037166862834569, -0.5558938186780459, 1.0006773348259879, 0.6009045695062184, 0.0159755534790719, -0.4804980424542654, 1.0020878073718509, -0.03991695757342739, 0.13996882706673736, -1.0359273473719095, 0.4601300323864073, 0.39121918499234837, 0.3590425352743549, 0.005336910514277703, 0.6817054677861485, -0.5786577871049507, 0.9353877204553238, 0.7636877362156441, -0.7333942407284736, 0.6299652900083216, -1.0020847706776113, -0.2150480164693391, 0.5746774560512179, -0.12020466812218936, 0.3438023009925409, -0.3929536974313172, -0.658000272794794, 0.2566531675713888, -0.059835968397242444, 0.48523584472635084, 1.0039681472055075, -0.6519360422741108, -0.4432064521355214, -0.8329883163500049, -0.20733100535272825, -0.6603202058562266, -0.30183662825802043, -0.36737625347989267, 0.4808901843296597, 0.1589147708795321, 0.15023194789585437, -0.789705402830655, 0.37923222989695243, 0.23927520567597943, 0.6396741407018097, 0.6527789930813491, -0.24502829320104136, 0.04696817413541742, 0.4985114931668001, 0.6506456713139467, 0.2969786982592662, -0.4206749790272654, 0.08466292034835478, -0.2260145339893741, -0.6151682320774328, -0.22808424269047434, 0.23659803614225217, 0.36221016277073176, 0.11950811319814882, 0.48800284782647924, -0.5299123884043582, 0.19603825592236637, 0.17610169043275553, -0.061147127689173436, 0.4591860942597258, 0.8566788732690791, -0.5088536322708431, -0.2080767822315343, -0.6639996697331282, 1.1205320042692353, -0.10780515157946227, -0.20959030090352487, -0.36121243764422045, -0.7521542490796967, -0.20919721367187316, 0.3174453291287411, -0.5709967232118994, 0.8435019709637904, -0.566802819098623, -0.6745410476965072, -0.02837655295363069, -0.3604423621244108, 0.7576429434930636, -0.7593775748469489, -0.30674138347222546, -0.26761212111832816, 0.34184614943159886, 0.26859427535605473, -0.36006074013146955, -0.11356096796832973, 0.18561886658801902, -0.5204456120439374, -0.3200187827420613, -0.08286291414472229, -1.126212727082778, 0.513949335884573, 0.6376446982229084, -0.44012294153736203, -0.9345320885093847, -1.197473062703908, 0.4810537402467626, -0.6801041362350462, -0.6318403351771186, -0.1966426364966815, -0.8748701829037171, -0.01600548168448858, 0.004501085234544187, 0.6861676709040757, 0.04715332847684434, 0.18966529303265928, -0.5598267986296754, 0.10136593535456839, 0.3136251518727673, -0.19409686789737232, -0.19101376178703214, 0.37184133540891473, -1.4248927738114914, -0.07190661402009996, -0.6800230415756705, -0.12105328800970021, -0.5953275299524858, -0.8083240880474107, 0.5479566571210923, 0.7804598997987056, 0.05417642484505099, -0.12724494962551117, 0.5367436182636416, 0.025734602130165103, -0.3645335680857691, -0.5298574731505177, -0.37132593560250826, -0.5626965966094757, -0.04244301764760086, -0.0008582372489971101, 0.12462509353037031, 0.23811106865595058, 0.26890650247572395, -0.4263690025588564, -0.3466807422537477, 0.8039305122111224, 0.012160183235201405, -0.36148518384751926, 0.3023851575797381, -0.4796473043315182, -0.5757422775414761, 0.7833848310918109, -0.9591790536563725, -0.21335950141949273, -0.7365006097554507, 0.6493420221930257, 0.2638599704733697, -0.23137863887808732, 0.7368635669443495, -0.4493096360573833, -0.3505781042305944, -1.7516951089254942, 0.4523214132454693, -0.9378616269797291, -0.7591862084413805, -0.8258243601638484, 0.1703122487823132, 0.09821478720039876, -1.2863758322081096, -0.13675487852679025, 1.0149478775871386, -0.72910407635485, -0.13121921954897386, -0.30155326854178943, 0.713893002107836, 0.6068054142523139, 0.6343164994402215, -0.9612061397532587, 0.9228380278593934, -0.24395448753728197, -0.4573728812781642, -1.0787113647170643, 0.6324379896721896, -0.38137505360889595, 0.17546174789289617, 0.7206322557556138, -0.02574214919752195, 0.4386054477761055, -0.6417207790580379, -1.044475460381006, -0.6697935351258936, 0.5946014591253698, 0.36688865915284175, 0.8384413429835292, 0.17169120213389763, -0.6849316793388875, 0.5293009211591909, 0.8879773917909303, 0.8580764675908583, 0.5228471722995599, 0.9018426395103083, -0.7365698279780082, -0.21050974283687807, 0.5653040766992001, -0.8626067667833685, 0.14194979638008873, 0.9971036275412127, 0.49651395486785177, -0.08113572104073785, -0.2003053342107232, -0.6838418137540075, 0.5936658373450626, -0.5453005643515488, -1.4056181573901174, -1.044468474182564, -0.4157331492891761, -0.393508934646555, 0.8251281180885471, -0.2787043269126605, 0.14498766167580007, -0.15454218211285642, 0.26056630208293835, -0.19244641473102933, 0.3420999746156137, 0.5034401476431738, 0.6684474156016921, -0.3683030469937499, 0.9781989022538535, -0.039345401218436125, 0.3151231638806702, 0.013115886889111028, 0.7854316536373308, 0.39145802522098566, -0.37606702931779656, 0.8860814242719637, 0.5933738001878744, 0.2989354537133128, 0.7352251276647451, -0.6354102440015282, -0.8269652340361442, -0.13525064781398347, -0.6072296235462245, -0.32806546425625904, -0.7146735757185371, -0.47588485194539926, 0.42804933252052496, 0.1955566184606726, 0.845011920659414, 0.8779110070046438, 0.04831230467622473, 0.6142173983248818, 0.32041906320267366, -0.4683053780478171, -0.022433627963862012, 0.3799764627264764, -0.06611095072030947, -0.49065890578293375, 0.030018777815860487, -0.9307625343793227, -0.34660388562263106, -0.3248943058627445, -0.15737264752815228, -0.1787122262874038, 1.0145391023707047, 0.8014370706978919, 0.18568533094969414, 0.16858418350120577, 0.38221381326866505, -0.4744615200678067, -0.3913805211909586, -0.5098741446105208, -0.5112803459940387, 0.045729590986193676, 0.7625484587903854, 0.6256262714037301, 0.6285665201892061, 0.12991808598070234, 0.5542882833818041, -0.31733780316409516, 0.07534796357273557, 0.6276234171000111, 0.02489306271614866, -0.7781688315156284, 0.785087504650673, 0.8681257950901355, -0.19537013842240536, -0.7250279526609864, 0.8318149566675938, -0.5334078405144923, 0.7410363137528506, 0.14506688956144193, 0.7443400049617925, 1.6925694345574285, 0.8504826913580307, 1.024455537536816, 0.5958543159762122, 1.1363099703462776, 0.43205957869164074, 0.3484232023301437, 0.15769585489796015, -0.357482494344031, 0.20146350644094452, -0.07245760806521688, -0.02752474258564032, -0.0022272591047408025, 1.4054180423780358, 0.4783565873001175, 0.5173072835332364, -0.7975180740490607, -0.9247708585382513, 0.20219900759237586, -0.2865526663510417, -0.06192469800883149, -0.15579242662593007, 0.2644882033539111, 0.19465984788237672, 0.5769534152338138, 0.6166932469688013, 1.0858026193267036, -0.21100813189790413, 1.4189596479088673, 1.3053441018403995, -0.6098093565843347, -0.735304913852636, -0.3731013944223731, -0.735965575424984, -0.835417453479707, -0.37498160957274235, -0.1643575881769007, 0.6228548226335289, -1.7763391771855492, -0.5120729899501225, 0.4976413405914878, 0.2604383543754542, 1.1989227432736778, -0.4546307671245868, 0.02185876602886172, 0.738822821491518, -0.6045549283615668, -0.8985882835733952, 0.05244308286211874, 0.4895500393209573, 0.7223190771352759, 0.5433645247597882, 0.3048525728616749, -0.5426927976637432, 0.8467255412002099, -0.384253218311407, 0.9118773348531757, 0.48865453916476287, 0.6816967763477897, -0.6916878549388257, 0.7717091110650867, 0.5716613942613652, 0.50644806382604, -0.4568952617323933, 0.42994962798908043, 0.14540082834863177, -0.2392940969318243, 0.7528908101135015, -0.02766822105557796, 0.5733630635647051, 0.2779515553936532, 0.8580800535887831, -0.15530424319390473, 0.2087629353188743, -0.1486360434315047, -0.616528207290957, -0.40458913170406685, -0.45205235789969844, -0.4273621744246494, -0.8397389874116591, -0.8415814526305938, -0.9687812830690309, 0.4313416985620371, 0.7436184774048666, 0.49596587392278424, 0.8247949190093782, -0.26991936365510855, 0.5547926661643084, 0.4314988832161283, 0.9138070770839674, 0.7769877492649664, 1.7781211903048486, 0.4598279331735449, 0.454546994010453, -0.23143900737021333, -0.5418391343526364, 0.4070112184665516, -0.5631893931446128, -0.42109594700959335, 0.11296179137200471, 0.533440563940973, 0.0931672143013217, -0.3324648380753277, 0.8002445181105058, -0.9576969986071551, -0.9784018240496615, -0.8648934718399786, -0.48551608773661536, 0.36400320532599456, -0.8478393082113124, -0.2208774678884515, 0.5943866937719282, 0.07715410769652954, -0.9923974455496567, 0.13615823730550333, 0.6739832440215123, 0.5276767590000699, -0.514931992410091, 1.3068363663714224, 1.2141534208538713, -0.08056981977786491, 0.8692474841447208, 0.4491485397018307, 0.8422854132175355, -0.0980679218946726, -0.9327592256522271, 0.8261007189208266, -0.9411407380262005, 0.17025339939779213, 0.7893966585408558, -0.05314259705806057, 0.8074781755291445, 0.039071971711735154, 0.4363537627859879, 0.90381031829181, -0.6311272405119706, -0.44698042469642896, 0.5703096454983202, 0.1280596494449466, 0.3008376955444725, -0.19699493759268516, 0.32976522348734294, 0.17744090200397436, -0.5105191828224838, -0.6748259668123567, -0.7788043417591457, -0.09017708853519214, -0.8121061098546246, -0.27760153768999335, -0.8254385258784543, 0.486946391591752, -0.3590635573915573, -0.753189024374797, 0.6743945223029412, 0.18882865046774702, -0.9415271654886181, 0.29568915674781504, 0.002181880252632644, 0.5270092713532859, -0.7679774070573624, 0.016263018693887243, -0.700287468433892, 0.08787968699864734, -0.5238367160531214, -0.3006870257777354, 0.37640556021456134, 0.7086810768397358, -0.4784209056705832, -0.3485183834914515, -0.9238115725091334, 0.24277003897713303, 0.2259029800644898, -0.250866332874747, -0.690819580118789, 0.46102954173123295, -0.32831070286493813, -0.2900679282856566, 0.18858052799351005, -0.30273794965116024, 0.8801754623844348, -0.5380518283237472, 0.1720292341477211, -0.2512291872578073, 0.7902649410864305, -0.8891739463437844, 0.7300693218975305, 0.37664899973892885, -0.8396936546726519, 0.19237597542741613, -0.08875727352550156, -0.8862367675654692, 0.7213991339765438, 0.023345622201001337, -0.8593530542893157, 0.09077113624161466, -0.6452591497591741, 0.3944951262212257, 0.07089156055745766, 0.4770259192058358, 0.43326778759825607, -0.3725242141998597, 0.19296387292313263, 0.806042687502346, -0.7040045838682494, -0.630915439547348, 0.25105476924460435, 0.3403838425306581, -0.2247642731826917, -0.2767788983030851, 0.014062648564946564, 0.29209990575243944, -0.5286336716184799, 0.5615566226014392, 0.2738329376180406, 0.6109962157722826, -0.07504663587104776, 0.39664281408194135], [0.9067691329639822, 0.3728821779656255, -0.44813322130604694, 0.669377363088486, -0.6182756593603573, 0.3806234132188482, -0.03448754280180677, 0.9171023465496149, -0.5777552265289743, 0.43492166531669074, 0.25547650218915297, -0.09588779886098586, -0.6200201478148963, 0.7513104604744685, 0.15046569544267818, 0.04040732574946282, 0.8885550962723421, 0.5949307516843625, -0.3102052339568624, -0.33898314767898174, -0.7521788310981907, -0.07669642103959351, 0.905160029337241, 0.5752580095301734, -0.32065025758810384, -0.4155566906352084, 0.5008796134545801, 0.574796108569553, 0.9528506560007266, -0.28196650715871674, 0.6046098585202049, -0.4224810834241892, -0.12415048002591411, -0.029764548931695778, -0.15977108748162028, 0.5953809205323755, -0.7203018795185514, -0.2943735594492247, 0.720783769456061, -0.8093663831802674, 0.951052702941904, 0.00819644947036386, -0.10754489420374941, -0.7504138757203317, -0.17471583200062227, -0.5648991309043196, -0.5798355274299161, 0.7485692341310546, 0.037165375151376905, 0.0710087508584024, -0.38890567261500636, -0.6534179016812482, 0.8095376926101998, 0.05677943313790057, 0.7256490445070427, 0.7825887580567126, -0.945508380121014, -0.48786716723916923, 0.5448936675008917, 0.3905256120576073, 0.4779299146991207, -0.7410502722874148, -0.7233559783571526, 0.45885901552968483, -0.6196786220634306, 0.07050641910813564, -0.5658942463063326, 0.31675036636121257, 0.6037785324875539, 0.2209931828951623, -0.16653339795415703, 0.7073169805516801, -0.599596327987016, -0.2663355632492634, 0.5377857303217018, 0.7293755403731181, 0.8003982511490485, -0.8937184226730284, 0.21867275163548255, 0.144124806905269, -0.5126790926528568, 0.7974254795787872, -0.7745875012757875, -0.11341227082902727, 0.9085658796686278, 0.712068875589402, 0.4690775531257827, -0.3663567231216398, -0.8535418691031191, -0.8623414424429947, 0.3924133251726583, -0.6001024964032463, -0.9115512264601479, -0.23684865318583012, 0.3182479335567608, -1.0283069466550425, 0.36458819347563953, 0.46994317764829074, -0.415951732989158, 0.6913007185496128, 0.1358739844701998, -0.601683456304702, 0.6569010192245768, -0.046961034187849575, -0.3738374762595956, -0.1783269074881954, 0.23131881085635136, -0.2615004764957248, 0.989746821531942, 0.2173177753971791, -0.2789904624674491, -0.22530050725835138, -0.9750636959777295, -0.7684472614911941, 0.31200717784768917, -0.35690851539507484, -0.6602414627870125, 0.6230477394335212, -0.7546021603798017, 0.24240735214089063, -0.7592026137718249, -0.6948249609747595, 0.7642252793369476, -0.9976415712849476, 0.6847694400249112, -0.6825059993328173, 0.6410626162517784, -0.18883395386223406, -0.9388682020917971, -0.5628764652193806, -0.17633625170559494, 0.7292368510613286, 0.09415830051306415, -0.9592516774465276, 0.1740207216809627, -0.3610318333275738, -0.08829613818148929, -0.7908888199782492, -0.34284615080786773, -0.34704589644417316, -0.3996603495449955, 0.847234948534503, -0.21927552613186752, -0.9344540944088545, -0.29252922586503277, 0.43114552304851506, -0.46454009984299316, -0.5646404304161642, -0.7631802402103482, 0.49486438352150786, -0.15180084121776613, 0.28954760328519935, -0.336967009056933, 0.41274950708791014, 0.6182024001563762, 0.009004405423109174, 0.3718001273587709, 0.3587612028710445, -0.6242375545961204, -0.17957512634742026, -0.004734343097914233, -0.049319929802745376, -0.2534013405526083, 0.2115406622431232, 0.8589347341368772, -0.8239924290754614, -0.49721422497480483, -0.934846350197204, 0.25685247055060234, 0.8157847977162196, -0.8382167939075296, -0.036787382482600404, -0.38609947322126925, -0.6467717305185514, -0.046556561286395945, 0.6557118840371366, -1.3124924613577507, 0.41329469601685104, -0.40984449596114864, -0.6650054180284404, -0.5447885237969544, 0.5494140221655852, -0.5507095964851098, -0.417299148230567, 0.2351108793519998, 0.9595491483897979, -0.6281885386028846, -0.2527832769859456, 0.5188738337363701, 0.6963377840362844, 1.0678773073402763, -0.5318465856985287, -0.3353882365363781, 0.5291027061372242, 0.5535178501014355, 0.8288898478551647, 0.11965093323671228, -0.2880234119076862, 0.5793601746919327, -0.5129776744825241, 0.6050208410425744, 0.7603694231646942, 0.7737811777878626, 0.3028215587179498, -0.6145816448409407, -0.7210780245065768, 0.6301444776174895, -0.2820079873113598, 0.5949012361909628, 0.22644635105995578, 0.44981846038428014, 0.5478832500253892, 0.26560938499762266, 0.8496491063625639, -0.3246939757915726, -0.2576285431825383, -0.9323825248259165, 0.7480859190409775, -0.08932035621207011, -0.8774621522511077, 0.4533324380380724, -0.7151976384835141, -0.61801675994541, -0.10801274747841541, -0.00899923570976226, -0.2428455465919553, 0.5158957290254303, -0.48153635495716884, 0.36578133573153776, 0.3006506535372412, -0.6448866493940786, -0.3876663720880967, 0.21019904689245844, -1.0268474265805516, 0.530147980219409, -1.0272218246804543, 0.07266258610538398, 0.08898023553299968, 0.10800246409561158, 0.9517466926018837, -0.5686517446582774, -0.17386590065269536, 0.17578059941902557, 0.841561697621212, 0.4545604947609745, 0.6351476888274142, 0.497517753974431, -0.7329105248383619, -0.0703289668188938, 0.5191988509058959, -0.626927358335816, 0.2597446692212195, 0.9820352835320544, 0.755226210530355, -0.7867805605255475, 0.33104157198889117, 0.393944776177524, 0.7341694609051647, 0.4522727839170726, 0.5430520749032911, 0.21548216667882417, -0.3215419035964718, -0.0021599768457811787, -0.1268640346658712, 0.9761880368014847, 0.32955236082493483, 1.1792947037730397, -0.2886571670863859, 0.4459219848776669, 0.868980401420445, -0.4513185063408681, -0.43132128392018665, 0.11864460261797746, 0.20897038184291364, -0.4838267273193331, 0.17978708841718508, 0.19377588705855306, 0.25456284900372866, 0.7327995786323099, -0.17455391833166645, 0.7198205439722702, 0.6239007699435768, -0.6309469996878065, 0.2353788052722031, -0.4658573394207713, -0.7920840273126504, 0.9085458971050032, -0.8701867277449805, 0.05659428947412045, 0.84083289386659, -0.6435889276640245, -0.4937136892707822, 0.8246043586683938, -0.8505111340934955, -0.36921015711768146, -1.0174894638255918, -0.3293189570697358, 0.6993585889750094, -0.16432787984637423, 0.7104788707518718, -0.19349403821627031, -0.6895007711224854, 0.0974227703763471, 1.2159584722579566, -0.7476668101052314, -0.5809283078635451, -0.8828111741218202, 0.6863204173841493, 0.31432458785282624, 0.3256937323010698, 0.2380599110558077, 0.07114543237831582, -0.25402095755239323, -0.6325671250585762, 0.1733016559938858, -0.5719150308096845, -1.0600162002526896, 0.28793046595265825, -0.9031680085455749, -0.6153010857024941, 0.7762605830328791, -0.2508792498777359, -0.014209977553348664, 0.10719129271469657, -1.3881943583249046, 0.062526223882589, 0.8467393097209754, 0.4271112087327573, 0.6416515816403325, 0.6979510434977273, 1.2542310425853977, 0.48527069257972955, -0.27290237597405836, -0.9721922465858448, -0.39712700597541184, -0.5484453472841682, 0.8281759795026256, -0.6583221819906936, -0.08513504713280416, 0.894562249316804, -0.7457555251552708, 0.5713239213807567, -0.3781676110493239, -0.6222851265596567, 0.5061972620701806, 0.5510491202053371, 0.7509105557671247, -0.5861784352872248, 0.38542839964407116, -0.49355642741971767, -1.0356998216521105, -0.20603382176787227, -1.4119583391842823, -1.3266476063349426, 0.429487738189219, -0.11098041164362218, 0.1249606768201566, -0.13558635143311154, 0.39113384330788414, 1.0882116936189297, 0.7705621250770526, -0.3871648613816228, -0.3605737606975375, -0.8155460493956272, -0.14178202002546092, 0.8119998806375229, 0.5209949262722706, 0.04672681750958276, 0.5936347172231318, -0.213128538797662, 0.6187349821716267, 0.3091179041345657, -0.7298611441984031, 0.20566193070602548, -0.05570012081710031, 0.28426693538566483, 0.20506635212137758, -0.5302475948980091, -1.2645822799347401, -1.2370115443744598, -0.08801019859213442, -0.7916401706941202, 0.43774264974140814, -0.6448138804824387, -0.5594733381134996, 0.18029961260255084, -0.22586591031124495, -0.06421539327075854, -0.5551528611946578, -0.5140337702686859, -0.8965616547663855, 0.8670511273509725, -0.1280921637699557, 0.7919403379205063, -0.5219405248135264, 0.37000634838553614, -1.0529684931069705, 0.34878831171652974, 1.0242516937876636, 0.7254216070046636, 0.2645900754905043, -0.009574494711478053, 0.8118273549042515, -0.0025736685391715415, -0.27474780733718396, 0.16486738113996055, -1.2924262003769516, -0.5774746165093008, -0.8042861724284793, -0.14341232602358506, 0.34766000240962897, 0.4008118363242762, 0.36144802211893795, 0.37635860721655723, 0.9136676763321597, -0.44293844624103396, -0.5734160086111392, -0.6431366920956648, -0.670207688611363, -0.4542630797280742, -0.6002522322279844, 0.2889136225774753, 0.1278350665471979, -0.08057892687864134, 0.05215411156024107, 0.3640662914160995, -0.12371690285673038, 0.5161754296916968, 0.9004214656124372, 0.5152610244924305, -0.7144613831474544, 0.002229371612061518, 0.4680189024329257, -0.989863525857953, -1.5989772812352208, -0.8276412132011158, -0.9331887657489751, -1.029308238083519, -0.32396992837902366, 0.4430833580592736, -0.6885472405038714, -0.1223879410627468, 0.024648566469544053, 0.4302941823663326, 0.28304087048094073, -0.09583178543445238, 0.13863272512635258, -0.8096539571191812, 0.1769551175837316, -0.46707493617007145, -0.5197896278174128, 0.5573613457515888, 0.5697021859684934, 0.14655025482060483, 0.6938810367575013, -0.6277920371536765, -0.012484226674032678, 0.5300962113334905, -0.1869092097298414, -0.8749694087004545, 0.0562307794163074, -0.35743688971486, -1.1240787664838507, -1.0578784976894247, -0.4456253947795952, -0.7922126341477106, 0.40213315132358224, -0.6057536409353771, -0.3795349788739441, -0.2661342909763406, -0.46280003824734445, 0.0303874669179649, 0.002356088720038832, -0.9549812252372613, -0.4386474726185563, 0.26970123115477795, -0.23948780648041867, 0.48282492990203574, 0.5188039376948095, 0.45502931015169623, -0.437141497035896, -0.3878928927401643, 0.048081013839198675, -0.5935316749729905, 0.7065276473893196, -0.12742690137513116, 0.5608628861095623, -0.08702262587833197, -0.7343140331224204, -1.173162192557968, -1.4692962097998894, -0.020616879048530958, 0.26983830899848726, 0.01974380355312069, -0.22922249352798046, 1.2346688402266321, 0.8065027233647193, -0.3532023530349912, 0.46463807943332536, 0.9294909320520686, 0.59271232638563, -0.010554321687501603, -0.7458083006900575, 0.8439039839452789, 0.09729602772884038, -0.8367076026048295, -0.8422093179988369, 0.003897281332455589, -0.6927229249938166, 1.038734115642014, 0.7854559113802541, 0.7562393144091447, 0.41196281090744313, 0.8977434408357432, -0.47161016865856537, -0.7257031636470568, -0.09516138884054791, -0.5300674206051305, -0.6126166345338073, 0.04811942192119011, -0.6496967414713246, 0.04016246308062979, -0.5183466718302006, -0.7658793944693715, -0.6949403206543525, 0.6921868890289745, 0.729880550876761, -0.9923611047887233, -0.8705229695879356, 0.6617680713393221, -0.8454699792053555, -0.5469862052038695, -0.9121363296892668, 0.4295336166186474, 0.6156659285526659, 0.3230927141293993, 0.7045859726251217, 0.22299781035285046, 0.42270588017007443, -0.36329769430303605, 0.828387126374221, 0.39460515117470213, 0.9353789214315281, 0.4133753070924608, 0.029059241195678407, -0.6389839680542674, -0.6929081365555911, -0.0036566462205088763, -0.6449939508711069, -0.8235725970047705, 0.48331415017614526, -0.11915314738870414, -0.20234347095632874, -0.35353917546281544, -0.09814991702591395, -0.9468829187721814, -0.26746269984365945, -0.05428838670534112, 0.5369020827864923, 0.9151964740252599, 0.5087734059245119, -0.17866839006433644, -0.6675723963088054, 0.3759909451012148, -0.4376774255918332, -0.4258488737409764, -0.1583661426855504, -0.5347210447033414, -0.6013044308244518, -0.23161591260147416, 1.2863544059779488, 0.013669841433968294, 0.47367047202676177, 0.02359888387778803, -0.7465393603610371, -0.25954176959519465, -0.09558862400375331, -0.6600153284073866, 0.4006197109805289, -0.9948242493560667, -0.8161022438800701, -0.21861822389425462, 0.5804813767997642, 0.1485755946038884, -1.0137682861009893, 0.578512130648197, -0.14970678497617723, -0.26543368923025423, 0.388083015187795, -0.6783566042905502, -0.7295966383604608, -0.8294739918236118, -1.06791511251563, 0.16574219484567004, -0.04569347456684485, 0.9912774784979239, 0.7164243699995285, 0.4616201918115729, 1.0413989665271983, -0.1005305547456922, 0.0687063428223646, -1.0399094864215757, 0.3214699364518827, -0.21720343574683373, -0.8893995380290193, 0.2699579274572678, 0.6470891921084655, 0.4899671036373845, 0.747645995185033, -0.9791975889522676, -0.00912690099811972, -0.26834412744910585, 0.4478986128258011, -0.41468384205446124, 0.14670179604179176, -0.41845375040438615, 0.1586397263900896, 0.36657199345886915, -0.7865124345609683, -0.6717619896869063, -0.4915869469174035, 0.13619006713807308, 0.3795358105512897, -0.07303199820430986, 0.6264654028798912, -1.1088341587284498, 0.6851048762407055, 0.2564083914735393, 0.07907784042728214, 0.22448490525299566, 0.14947455750012897, -0.26405576472513614, 0.5482741936600872, -0.8548007030387639, -0.7468975141245812, 0.7847662126618924, -0.5042766149232351, 0.8353544814807766, 0.5931673824157392, -0.6672794468818036, 0.7952771558301255, 0.2790989914449829, -0.4984249764949039, -0.8105301110611853, -0.787200937019525, 0.6076355595075338, -0.515177788039482, -0.45280776696680247, 0.37382432768304097, 0.8042113974074951, 0.05312904912479802, 0.2707070882752392, -0.11449900130442629, 0.17845716132766282, 0.4087681894790017, 0.9706315189432992, 1.1484142742139782, 0.11147497181948039, 0.3026843132594114, -0.778886952460219, -0.3159371780049463, -0.21824028706448773, 0.08574501663854132, -0.4774948736947165, -0.9516132941325671, -0.1372018346350187, -0.09534292096839427, 0.09780263505913099, -0.4701103088996135, 0.4160210448711288, -0.23231881334264948, 0.303079036474476, 0.8515144305021656, 0.0772822919180376, 0.18042044827476822, 0.4194141694284614, 0.04173890858624637, 1.0645844035024044, 0.07464859488398806, -0.6032108722430115, -0.10363418300351895, -0.6334743142117644, 0.05533589045373705, -0.37425875879560616, 0.2644425284189845, -0.8588868512704569, -0.2987778671017182, 0.6785828304191764, -1.1780617947754783, -0.46368817395938006, 0.3431971476869809, -0.7206897979567133, 0.21959397856930785, -0.8403894687579118, -0.9225671098746631, 0.1344091236832315, -0.9012358000498195, -0.5038361186980644, 0.283435852183783, -0.8658052952923891, 0.9734836136841112, -0.412059381834847, 0.9093812957169247, -0.023758892883859625, 0.2312015512481007, -0.20812126814351795, 0.33584706479286897, -0.9073088740700251, -1.0335709467658183, 0.49085402858407357, 0.2887604026942965, -0.07693692573977697, -0.6481126946495522, 0.34005661403499854, -0.08576272021100602, 0.34343301225722606, 0.38229752976143166, 0.44844025200025034, -0.5398816235672789, 0.007882089273095408, 0.11050311889547738, -0.590268812577619, -0.6458467580950572, -0.6566295698547018, 0.7084100629903519, -0.2375574942705514, -0.29289524364330477, 0.4013310508445469, 0.47198026822702976, -0.6029118908976416, 0.6158360671076142, -0.9597414876594544, 0.3008465531078428, -0.00704342365451437, 0.42979306180898286, -0.48779240444072985, 0.28303160841345865, -0.18742002083917306, 0.38028455481818135, -0.281552027226361, -0.2834291711539596, -0.2765708643101186, 0.6561211089607389, -0.8586185439373614, -1.001069121660558, -0.04339195054548356, 0.3929195485993565, -0.7171409878340178, 0.5056573232896119, 0.5291119247704725, 0.10883000141159933, -0.012996600292257465, -0.049485778462760255, -0.23506068965683835, 0.7160750791808683, -0.19140194532278088, -0.41001764629272364, 0.610284386862578, 0.01815788362873927, -0.7986052935810464, -0.7406830928299499, 0.018960066130632804, 0.4445867674295819, 0.3580986257486101, 0.9086525922458566, -0.3439286420599385, 0.052926512940431054, 0.15952614154895547, 0.2672212825022638, 0.35809381696818265, 0.19786494313386607, 0.7099461889668008, 0.723986744758113, -0.9564887699466765, 0.23120135002965653, 0.19468968192903904, -0.5738972099934988, 0.10144455906735862, -0.4423481661989856, -0.9731871841512945, -0.6372208533367818, 0.913991430546307, -0.4447608863405903, -0.5274994134103601], [0.30768099280746064, -0.8780260726501254, 0.49586506585775125, 0.9434378624168878, 0.3911873893591937, -0.3544799769618583, 0.255408917987179, -0.1051120904882612, 0.4580976428350303, -0.9395952189900925, 0.7692630930215953, 0.48064483795559587, -0.17101832295905584, -0.45488487671104916, 0.6427637399189152, -0.45982455952604573, -0.3573685728428069, 0.07269317591541569, -0.09801762644324641, 0.7563459633311651, 0.2715079784728165, 0.0667585383030509, 0.9071927137768727, -0.6657345672473187, 0.1792137498285593, -0.6606527497178463, 0.7956036001044484, 0.25252201445663736, -0.9769116028981302, 0.6040826754044428, 0.45733826722764537, -0.3863682484359372, 0.4055112623780177, -0.7121167784904103, 0.36272182231714, 0.91292621750269, 0.2278028713595146, 0.7004921324692754, 0.5845535685138412, 0.2516976224117005, 0.42204292884185146, 0.9415708071001736, -0.29247871922103297, 0.8625908742216518, -0.8403817663566588, -0.5026177011752169, -0.4417779878955096, 0.41751719476221555, -0.0766001837816452, 0.1116325960690989, -0.29763875983209115, 0.2325595281906614, -0.6003917189244246, -0.45896288107145566, 0.7355198476171891, -0.6367068553907329, -0.09803079351682964, 0.3268367399999532, -0.016777148741844217, 0.811182321055774, -0.7374659471130862, 0.4523028861328213, -0.4027299593734266, -0.1913267451382638, -0.10486848274386897, -0.9337100920038868, 0.6253112341134044, -0.015160977636436689, -0.13285661098641166, 0.7912568597094402, 0.3993647465567178, 0.37965132373685906, 0.2591260937988311, 0.22344096388852872, -0.110314402635219, 0.7979085896576131, 0.13766291502641997, 0.5173953493031618, 0.7060454261746908, 0.7660758258631731, 0.8827215155133064, -0.85720785407158, -0.5212368800096299, -0.20059570562759688, 0.1064446880937664, -0.9171518170691755, 0.9316989238866293, 0.7946660098674085, 0.2503204102391072, 0.6996273726900912, -0.8252092263468939, -0.9981483449497933, 0.8764266143113404, 0.03522579450197664, -0.029006389072913925, -0.20049589774025, 0.06746032083299108, -1.0656296966200483, 0.07415517298087938, -0.9436620472064301, -0.5523152987125443, 0.014329130482303592, 0.3780981271905648, -0.8689689805031683, -0.9479678827793937, -0.08782989619708767, 0.9940120422614019, 0.44786738549077615, 0.02119645644446074, -0.2820213743245097, 0.580118209317817, 0.2977447447631816, -0.36701996950243476, -0.5891894509311648, 0.3976082597365438, 0.313811117615413, 0.5669073828762926, -0.7235186051279452, 0.030880472874221847, -0.2939738595134084, 0.4101617919538195, 1.0091769086557758, 0.26061412468654827, -0.7567211964317495, -0.6139179261905096, 0.06537406980314918, 0.28893335717077145, 0.8815205737417088, 0.27891943880339365, 0.5822286718274315, 0.07845474548264583, 0.5201351047159739, -0.3545579161735745, -0.20005524916845285, -0.46187685452535865, 0.20751702951908887, 0.30898149124042706, -0.8658640557002453, 0.7819675431972029, 0.7153109279745946, -0.3406512907681627, -0.06810989216824259, 0.862772295581461, -0.3174849398786388, 0.5442178590296473, 0.47170018331441455, 0.20539612714413744, -0.3475571289770135, 0.7351805721519964, 0.04350569492987313, 0.45587452101966625, -0.9625957391227105, -0.49578009876448087, -0.2562578422169984, -0.8722907084633602, 0.11329341022186488, -0.07975519521267198, 0.3773129005786832, 0.29690662408023366, -0.8503439858062554, 0.8993484688937967, 0.6787172215204609, -0.5913294820912884, 0.4170291322706124, -0.3621658823003465, -0.25588594663631004, 0.8742679104599738, -0.4535155337736494, 0.18972171698048546, -0.44311100002308046, 0.9129474030597429, 0.6802578568604843, 0.5949940224725959, 0.8780301662824601, -0.7203190090866731, -0.529441979218834, 0.8016362559367182, 0.052515907446919384, -0.9535671127991681, -0.8146860761343484, -0.22825475980028648, -1.0175085295004163, -0.3527245936619413, 0.025563455678714753, 1.0042427371657718, 0.05501220181031808, -0.3000158430396943, 0.3171039993038933, -0.5152565463951646, -0.11562807652849334, -0.40551724799904715, 0.08843579344166717, 0.5911736397043313, -0.8473246196710278, -0.48710398688635287, -0.5950237064704161, -0.9324026278262594, 0.41597246098536433, 0.6430913242937445, -0.07821600038560907, 0.677470731941102, 0.7270763029224128, 0.31810953142268267, -0.1696747867623438, 1.0010374274125569, 0.7200679662038257, -0.18362462545442332, 0.5088612671705011, -1.236222147542104, -0.14572238264970594, -0.3922557532324994, -0.6805785272257029, -0.2790136633140535, 0.12641675958616994, 0.2291034390708836, 1.170797892819151, 0.14928548811531261, -0.3127972125939553, -0.28660512604948013, -0.28203422880416645, 0.577715741934996, -0.1283779760867553, 0.4302329346345195, -0.14843073874592363, -0.8127999255360085, 0.5283493607963228, -0.6475570119007492, -0.22580131844144236, 0.03407075975777285, 0.34486498572493224, 0.6574767380716389, -0.5093644779008467, -0.26985216854528293, -0.6152841438607982, -0.17094115255901804, -0.9703206241715092, -1.0133864624220745, 0.8386349962398045, 0.31359631315512343, -1.6167927111839442, -0.49320462342447535, -1.0359871421949929, -0.047134340056006745, -0.6610823087147145, 0.8047565517239244, -0.7069942539212654, -0.00010792553101653286, 0.4084340574343823, -1.0551373946208769, 0.4960448785321257, -0.8476205440228569, 0.21635882637684078, 0.7593175163227016, 0.9411453364699374, -0.4653858784464547, -0.12622081080614087, 0.6739147723746749, -0.5759588577654942, -0.8503678912430269, 0.3816434390186602, 0.4095884043421147, -0.4210946137826521, -1.557240984526542, -1.2025172857455813, -1.2294941792534013, 0.530532664240422, -0.8086916148622424, 0.7329437702752265, 0.002836467107680208, 0.8070588739266616, -0.03434371256406282, 0.6728443279757728, -1.232745731415658, -1.3383552914986423, -1.3242791285016338, -0.7326485926969735, -0.9392193245277766, -0.06878968331837229, -0.5234411594310286, 0.3165845072935529, -0.58768214755424, 0.9106661821759224, 0.6472866101026151, 0.05100187684019046, -0.1918777886994603, -0.022638361170694447, -0.19155111526272953, -0.7748174539434435, -0.5058849033498914, -0.9008831115300994, -1.436564506430802, -1.0486153496057558, 0.9160493221167969, 0.7137779701963521, 0.07177832886956532, 1.4091471012207528, 0.9015266947225652, 0.570746073249297, 1.048191000552482, 0.32705004918043395, 0.1331893218788007, -0.30826111395071815, -0.7734475071812488, -0.7569646961373937, -0.8270137580489842, 0.7847571181813168, -0.3379447761153663, 0.9763137446374328, 0.017425503738319303, -0.8353088153286162, -0.14039757063461408, 0.29819886842112453, 0.3183292961384209, -0.7029316697115147, 0.5489479593940562, -0.10787088775261792, 0.44442568991010284, -0.5534530776041539, 0.23016838897371153, 0.3498396014224439, -0.2934282038521185, 1.1488752779046818, 0.28218000765971873, 0.4675570732217635, 0.5537300090396627, 0.25149628305104677, 0.3726185642288835, -0.48243511283306434, 0.17088074709640708, 0.03053075188622546, 0.3177687159998386, -0.455569128147478, 0.2997251892775342, 0.7635954581515199, 0.8503994819598637, 0.7157078638409002, -0.5288247711042471, 0.04430812399062555, -0.9558854805506659, -0.26944250897273125, 0.833900807958758, -0.7035734035272999, 0.5820980804792149, -0.03139891387192395, 0.7575540928861811, -0.011060618262013568, 0.0038488653582240497, -0.34571913279756833, 0.8512193796951999, 0.03994088948233631, 0.6490324273657526, 0.4804314769897647, 0.4641298626598701, 0.2340530138899063, -0.7444165888686638, -0.31667689693147194, -0.11791180154023391, -0.005927770687704072, 0.18910679050027046, -0.7044145329088858, 0.9592021703069828, -0.748086166732485, -0.38282639470597607, 0.2367809727369894, 0.56389712544673, 0.9500259428268971, -0.10894057145161364, -0.6539650116115261, 0.6428197952785192, 0.32911686614839053, -0.6862210043549348, -0.6216896453029476, 1.1166646192824974, 0.29091168993072936, 0.2429405516340899, -0.44104478636334793, -0.8743172035973698, 0.041299539529654025, 0.4604433581657392, -0.13497615545398575, -0.549400694477112, 0.06673954731684811, -0.7240021020496286, -0.8761364497421392, -0.27220352974077294, -0.45320543497448507, 0.6767534941212197, 0.03037782994721713, -0.8538728718753635, -0.6878484983526896, -0.5818803346977163, -0.12426835869788477, -0.3424300842848347, -0.5307582123071515, -0.23680197112707752, 0.1660451275996799, -0.05929142724922998, -0.4959378222787831, 1.0628201126732517, 0.55936499544593, 0.04489062943446729, 0.6099137549224978, -0.23899952191406001, 0.43899057090067695, -0.3206341996024131, 0.6751323719432876, 0.20425839733266643, 0.5236286183379868, 0.6012086186694219, 0.0421042782435369, -0.358127292755783, 0.13543745961686676, -0.22172714274704178, 0.4795430233540121, -0.7659187380016546, 0.4749258367328635, 0.11173604149049013, -0.8401469365983472, -0.564333148833115, 0.49286365690716516, -0.6935440293000084, -0.9537862047444092, -0.5595573321910152, -0.3612290397680589, 0.5265073988279758, 0.6839230575045534, 0.7076675600327191, -0.18974037908980784, 0.3809040765456923, 0.7401106092877062, -0.16341261161712903, 0.16847764274019703, 0.36932841621795237, 0.45358893836472275, 0.5916120266710638, 0.5263035370427549, -0.08788329711336212, -0.22708985141472177, 0.5314064975988829, -0.4515420875699836, 0.1846562772906863, 0.8059253658378451, -0.7060790545474547, -0.8429254149347318, 0.7985503085615073, 0.29491632048834976, -0.9797729159016514, -0.1622800957654844, 0.48308293879740516, -0.37324094372443417, -0.2907064867908535, -0.5050502864138047, 0.06318419742187559, -0.5170656802375969, -0.2795019007102455, 0.5941486227653283, 0.022864998803204396, 0.5903004942321675, -0.6319954077771244, 0.037061316031231105, 0.21114394617408724, -0.32629704593319253, 0.37846446623829494, 0.21840804957359494, 0.03742725755025894, 0.05172148588552266, -0.20325564811361427, -0.3477808396539642, 0.4135893468642164, 1.2541423686154467, -0.1774155260811146, 0.34759827404697297, -0.414971850414332, -0.26905912791856157, 0.9316250441175985, -0.3501254487879102, -0.4330291795164041, 0.04532759737782199, -0.478726069172339, 0.47811599830997864, 0.3146135263346812, 0.2404999153136143, -0.33517422533115077, 0.3745183868539969, -1.0026821879823935, 0.2026101678644897, -1.1518209946713946, -0.5534221689340388, -0.45247546993906657, 0.9073634892992264, 1.0862362655891922, 0.6926015563308796, -0.22497232037301845, -0.8055336151766683, -0.9485561107234908, -0.55263676537392, 0.7053493093599478, -0.11820952714921781, -0.9484800826001883, -1.0615183806132666, -0.5199721860846697, -0.9597476945676661, -0.6553013137773395, 0.22806229256461294, 0.6917055490741333, 0.956646350182262, 0.7179059932359123, -0.6250690696375286, 0.6399008654104882, -0.7015909284380583, -0.9204603790133796, -0.07044812105187959, -0.2636376387993932, -1.0598263891389386, -0.14228789065033098, 0.6397641505496711, 0.7506044054476967, -0.8173942823007275, -0.027171414734347327, -0.28485291013315495, -0.7850195075266336, 0.23922286593184858, 0.02691228049287492, 0.31789346045477024, -0.17608859697666773, -0.9780502478063464, -0.07386834215193828, 0.22952707956252558, 0.03203070017519124, -0.27831891093059263, 0.5534806784902633, -0.7024129447194246, 0.1396370706693828, -0.8392623652188897, 0.8013216952487819, -0.8936461974685859, -0.14987903486887158, -0.6121200426223642, -0.3230112533786357, -1.114511186047645, -0.713958986622924, -0.8757511370519719, -0.7766703545502109, -0.12551658095615298, 0.07027682248605831, -0.19019573822078678, -0.09891026378876466, 0.6624237095049162, 0.34183237253469945, 0.2158065924128326, -0.8947325187625217, -0.4926469628900526, 0.6565753142314246, 0.4205775668767205, 0.672832197040368, -0.6142133493490903, -1.001543682803991, 0.6728890882935284, -0.6108842497588141, -0.302502996474245, 0.28630702373689276, -0.8402965435615506, 0.7947918339871528, -0.31269125234695233, 0.37918580787391504, -1.008889665402592, -0.1614795623615904, -0.525821768252065, -0.5796984935491061, -0.10185334329332926, 0.46868514889081886, -0.6869734562387619, -1.2241430775469935, -0.028853511381989324, -0.7879923667772916, -0.33429242208230514, -0.3410727108746305, 0.4135696899359431, -0.5897336382531332, -0.46322860276389244, -0.12476001523108608, 0.017942073225806657, -0.7286517600072113, -0.8507067088997499, -0.6190330453109895, -0.5111518221027038, 0.6128974776786316, -0.5154663757856262, 0.15632521606044514, -0.47916656179085493, 0.9640726817363842, 0.6036846496838664, 0.6864945648649473, 0.4677550412453741, -0.6513436970523644, 0.2852370532675391, 0.6348198718843308, 0.30593720763801074, -0.2314687781676933, -0.25155852075516744, -0.8644573844830175, -0.7833760069900937, -0.4251275393066765, 0.7563487406246194, -0.3582779357749933, 0.46601162711431554, -0.03215217594368211, -0.5777866546550141, 0.05705327973436458, 0.07880172360348378, -0.1702527751746369, -0.7536287312996115, 0.1745678627809488, 0.6163900615122988, 0.13126882368811507, -0.3374984068028244, -0.43159400295864736, -0.4338979720775249, 0.7150829370489555, -0.8090850689905481, -0.24387336921701486, 0.9035008116082623, -0.3608572680725961, -0.5014469796082243, -0.46959041421533243, 0.38299232522077764, -0.09013242799727147, -0.4151796912099623, -0.6619546280241531, -0.3399671726664634, -0.7797610266214785, 0.5957286057720628, 0.37983592621694295, 0.8302445789368432, 0.5128151994301632, 0.4984560209554132, -0.7327909244624967, 0.5422873305417849, 0.5372434033397236, 1.014168091992675, -0.8546490752136147, -0.20867464397284669, -0.8843628965766377, 0.6392943783346123, -0.24766628065210194, -0.5735994838209255, 0.2254503765118824, -0.027853657111854346, 0.14535030612059271, -0.010967928170262218, -0.10271022201456163, 0.9620035326820217, 0.30862189566145803, -0.7968255793039755, -0.8640853642866329, -0.6218596987480538, -0.009439547020118576, 1.2049931938022937, 0.6113703067566343, -0.3084950000161338, 0.2840491955373069, -0.5709895678583797, 0.424358371200896, 0.8484130188415627, -0.8458107416438896, -0.32657664359244537, 0.4333903444169652, -0.29579095158370733, -0.46224868638854233, -0.7642033253506773, -0.2662681983684181, 0.3588099759533483, -0.30763527262757306, 0.40666107986985134, -0.19485448641492553, -0.6456508255330281, -0.6343501981654847, -0.5579230437216623, 1.0598995134012106, -0.851453701031231, -0.11790228423578637, -0.305329793047577, -0.4122581483414693, -0.023772179180076992, 0.47308470749489334, 1.0395364471065043, -0.9453640990930033, 0.2935739408892452, -1.334528239981875, -0.28370075013743473, 0.9817688010345709, -0.7336824913660801, -0.4683906100310449, 0.6053870016172275, 0.47709426385290293, -0.7122865262326361, -0.5967620833546571, 0.6496679170269286, 0.8941016665758175, 0.7407641542552736, 0.6041180899955776, 0.11656951636851165, 0.8923905760366637, 0.8597398486268705, 0.41302323452709827, -0.3574403836374029, -0.7351759399668732, 0.49113106418098457, 0.4734716685083714, 0.7687226756479223, -0.19844633836466427, -0.7574877486507797, -0.025247583776240173, 0.4339642961683215, 0.07478773305888396, -0.8442680496762541, 0.06451971052783592, -0.6626700785861719, -0.5898994889434038, 0.08607235230648357, -0.3338790088869594, 0.7510014028803454, -0.6475632811712287, -0.9987886999184408, -0.00015235187922253772, 0.7412319438045532, -0.8664596312555704, -0.050841457620185215, 0.8106992685753038, -0.9233618625205329, 0.1499578854906478, 0.5057188217766734, 0.42450391579059366, 0.5924380895130088, -0.2724237657653651, 0.3568623938843452, -0.2847071347999438, 0.8966417184736931, 0.0033382680653459332, -0.49643512624821823, -0.9797740435753469, -0.784399910699582, -0.04919998526275883, 0.3030491970697125, -0.8649647162562509, -0.20343960776666803, -0.2071792261079237, 0.211021305050466, 0.25096810069320225, -0.5792375473541661, -1.0104329066898696, -0.47125499901792933, 0.17562916655140937, 0.919795370288131, 0.670162474382237, 0.2449579612904138, 0.20203501417639358, 0.9496178419335857, -0.018265676173060186, -0.8848286891893395, -0.9406689575582678, -0.0018020027453125882, -0.8419742814978531, 0.4172609166189435, 0.13253420049530446, 0.8962960723561808, 0.21412689564518744, -0.9833338654468627, 0.7192786594463133, -0.9358515693459745, -0.2883653473184594, 0.03385521821832572, -0.3863625766590429, -0.198543105683554, -0.6027591438846905, 0.16016371525115616, -0.9954495509171228, -0.11300736297959954, -0.7207635177417036, -0.7800877221622049, 0.18422204243914053, 0.8906581001401739, -0.5749361237212169, 0.9694781145380447], [-0.7792231218363916, 0.5444022420662324, 0.6731920040811104, -0.8534263722455178, -0.38261057644758223, -0.7845941291978977, 0.4905177332492745, -0.7533190900624811, -0.25214592711874273, 0.4044297566967061, -0.7989833919292739, -0.7057577173762062, -0.21214026586008883, -0.4381470121533997, 0.06185637310039138, -0.9113078013719953, -0.7444793844700297, 0.3873046304787924, -0.7170106358307158, 0.29580459829280303, 0.8751964484662382, -0.14748964890625005, 0.16493255646721328, -0.187337680586797, 0.3414821252196749, 0.05291036224243184, -0.6844151246473544, 0.4401253193670007, 0.14990615920027728, 0.009526489733032717, -0.19075303886523098, -0.8117778738682702, 0.2582164572702037, -0.18658443618383336, -0.9864912953308034, 0.7974981128031313, -0.25627733413596565, 0.23187032760602122, -0.40681054524318827, -0.6969226280445231, 0.34122293625773403, -0.9320709868499979, -0.17178680771511956, 0.1464168750414912, 0.9436404734533302, -0.1257521419190586, -0.5718129872584863, -0.7121664159208069, 0.7601939061762342, 0.9586844013835717, 0.8193228736987572, 0.9983384841432708, 0.3449488366749991, -0.7228703149915334, 0.7196374492820483, 0.44974605716891647, 0.009512230271076616, 0.08834349052615553, 0.7508887677819089, -0.6945464858865551, -0.7518444666471154, -0.08854581909709669, -0.7460654002717224, -0.13074254082105052, -0.24097099592543808, -0.5814060402381496, -0.676915566092356, 0.5102378668108905, -0.32264733564233916, -0.04171394610331461, -0.6341236933790692, -0.6648239241162122, -0.5001159525507392, -0.19761450786212573, -0.6336786984690864, -0.25613157415256493, 0.1671411124751044, 0.5263053174807322, -0.7121951727490575, 0.19998925498923373, -0.1581918798844183, 0.15973775984238592, 0.9707793190892591, -0.6539118794380194, -0.39784658190549793, -0.6832120409611422, -0.45898777713154404, -0.9577637446776786, 0.9886125950362252, -0.5488185051737771, -0.04499403684809245, 0.8631754255513422, -0.7123335681031374, -0.1595640138235132, 0.21530549879173566, 0.4820161873464489, -1.0040269644612787, -1.3975967408610797, -0.99286744824033, 0.022685973196999918, -0.9044317789901715, 0.6353300453696392, -0.14172718575330198, -0.6701354857528431,